#############################################################################
## Copyright (c) 1996, Carnegie Mellon University, Cambridge University,
## Ronald Rosenfeld and Philip Clarkson
#############################################################################
=============================================================================
===============  This file was produced by the CMU-Cambridge  ===============
===============     Statistical Language Modeling Toolkit     ===============
=============================================================================
This is a 3-gram language model, based on a vocabulary of 738 words,
  which begins "</s>", "<s>", "a"...
This is an OPEN-vocabulary model (type 1)
  (OOVs were mapped to UNK, which is treated as any other vocabulary word)
Good-Turing discounting was applied.
1-gram frequency of frequency : 243 
2-gram frequency of frequency : 2269 575 253 176 98 58 48 
3-gram frequency of frequency : 4676 790 318 213 109 61 49 
1-gram discounting ratios : 1.00 
2-gram discounting ratios : 0.44 0.61 0.92 0.65 0.67 0.96 0.81 
3-gram discounting ratios : 0.29 0.58 0.89 0.61 0.65 0.93 0.90 
This file is in the ARPA-standard format introduced by Doug Paul.

p(wd3|wd1,wd2)= if(trigram exists)           p_3(wd1,wd2,wd3)
                else if(bigram w1,w2 exists) bo_wt_2(w1,w2)*p(wd3|wd2)
                else                         p(wd3|w2)

p(wd2|wd1)= if(bigram exists) p_2(wd1,wd2)
            else              bo_wt_1(wd1)*p_1(wd2)

All probs and back-off weights (bo_wt) are given in log10 form.

Data formats:

Beginning of data mark: \data\
ngram 1=nr            # number of 1-grams
ngram 2=nr            # number of 2-grams
ngram 3=nr            # number of 3-grams

\1-grams:
p_1     wd_1 bo_wt_1
\2-grams:
p_2     wd_1 wd_2 bo_wt_2
\3-grams:
p_3     wd_1 wd_2 wd_3 

end of data mark: \end\

\data\
ngram 1=739
ngram 2=3783
ngram 3=6479

\1-grams:
-4.1614 <UNK>	0.0000
-0.8132 </s>	-3.2740
-0.8130 <s>	-0.7576
-1.8500 a	-0.6151
-3.4606 about	-0.3893
-3.5575 absolutely	-0.6204
-4.1614 accounting	-0.1773
-4.1614 actually	-0.2490
-2.8808 add	-0.4173
-4.1614 after	-0.2476
-3.0135 afternoon	-0.4787
-3.2054 again	-0.2827
-3.6825 ah	-1.0791
-2.9835 ahead	-0.7595
-4.1614 ale	-0.1773
-2.9291 all	-0.3222
-3.5575 almost	-0.2457
-3.6825 already	-0.1768
-4.1614 alright	-0.2463
-3.6825 also	-0.3439
-4.1614 always	-0.2497
-3.0135 am	-1.0005
-4.1614 amount	-0.2486
-3.3145 an	-0.2889
-1.8333 and	-0.3833
-3.8586 angelo	-0.3388
-3.4606 another	-0.3016
-2.7794 any	-0.3782
-2.7979 anything	-0.7858
-4.1614 anywhere	-0.1773
-4.1614 apologize	-0.2462
-3.4606 apple	-0.5609
-2.2151 are	-0.9912
-4.1614 around	-0.1773
-3.5575 as	-0.1767
-4.1614 assorted	-0.1773
-3.0804 at	-0.8330
-3.1596 awesome	-0.5230
-3.2565 b_l_t	-0.3902
-3.4606 back	-0.4821
-3.2565 bacon	-0.2447
-4.1614 bad	-0.1773
-2.9291 bag	-0.6526
-2.3023 bagel	-0.6711
-3.3145 bagels	-0.2501
-4.1614 bagged	-0.2482
-3.4606 balance	-0.4082
-4.1614 banana	-0.2491
-4.1614 barbecue	-0.2494
-2.7282 be	-0.4506
-4.1614 beans	-0.1773
-3.5575 because	-0.1532
-4.1614 becomes	-0.2436
-3.6825 been	-0.2497
-4.1614 berry	-0.1773
-3.8586 better	-0.3388
-3.5575 beverage	-0.6162
-4.1614 beverages	-0.1773
-3.4606 big	-0.3032
-3.2054 biscuit	-0.4884
-3.5575 bit	-0.1756
-2.8172 black	-0.7587
-3.6825 blend	-1.0102
-4.1614 blue	-0.2498
-4.1614 blueberry	-0.2490
-3.6825 boston	-1.0798
-3.6825 both	-0.3478
-3.2054 bottle	-0.4360
-4.1614 bottles	-0.2486
-3.2054 box	-0.2841
-4.1614 bran	-0.2468
-4.1614 bread	-0.1773
-3.2054 breakfast	-0.4057
-2.7794 bring	-0.6737
-4.1614 bringing	-0.1773
-4.1614 broccoli	-0.1773
-3.5575 broth	-0.3875
-3.5575 brown	-0.1727
-4.1614 browned	-0.1773
-3.8586 browns	-0.1758
-4.1614 buddy	-0.1773
-2.9291 bun	-0.7792
-4.1614 burnt	-0.1773
-3.8586 busy	-0.1770
-3.1596 but	-0.2728
-2.9291 butter	-0.6161
-4.1614 by	-0.2443
-2.9043 bye	-0.3911
-4.1614 bye-bye	-0.1773
-3.6825 call	-0.3404
-4.1614 camp	-0.2487
-2.1343 can	-0.8066
-4.1614 canada	-0.2487
-4.1614 canadian	-0.2463
-3.5575 cap	-0.2452
-4.1614 capp	-0.1773
-3.1596 cappuccino	-0.2683
-4.1614 cappuccinos	-0.2498
-4.1614 caramel	-0.1773
-3.1182 card	-0.4088
-3.2054 care	-0.5909
-3.3814 carry	-0.1670
-3.8586 cash	-0.3388
-2.3207 cents	-1.0890
-3.0457 change	-0.3794
-4.1614 changer	-0.1773
-4.1614 charge	-0.2323
-3.0457 check	-0.3850
-3.3145 cheddar	-0.2578
-2.4606 cheese	-0.6892
-4.1614 cheeses	-0.2486
-2.5161 chicken	-0.7480
-3.0804 chili	-0.2507
-4.1614 chill	-0.1773
-4.1614 chills	-0.2434
-3.6825 chilly	-1.0102
-3.6825 chip	-0.2771
-2.9555 chipotle	-0.4456
-4.1614 chipotle's	-0.2495
-2.4520 chocolate	-0.4518
-3.6825 choice	-1.0102
-4.1614 choose	-0.2436
-4.1614 chris	-0.1773
-4.1614 christmas	-0.1773
-4.1614 chunk	-0.2495
-3.8586 cinnamon	-0.2495
-3.8586 classic	-0.2463
-3.8586 club	-0.2414
-2.1222 coffee	-0.7864
-4.1614 coffees	-0.2468
-4.1614 coke	-0.2496
-4.1614 cold	-0.2497
-2.4968 combo	-0.8537
-3.6825 come	-0.3442
-3.4606 comes	-0.5513
-3.1182 coming	-0.8730
-4.1614 complete	-0.2429
-4.1614 confused	-0.1773
-4.1614 confusion	-0.1773
-3.8586 container	-0.1731
-4.1614 cooked	-0.2478
-3.2054 cookie	-0.4333
-3.3814 cookies	-0.2971
-4.1614 cooler	-0.2485
-3.6825 correct	-0.2764
-3.0804 could	-1.0965
-4.1614 counters	-0.1773
-3.8586 coupon	-0.3938
-2.1865 cream	-0.8390
-3.8586 creams	-0.1744
-3.5575 creamy	-0.3197
-3.5575 credit	-0.2441
-2.9835 crispy	-0.8188
-3.0804 croissant	-0.9802
-3.5575 croissants	-0.1683
-4.1614 crying	-0.1773
-3.2054 cup	-0.4322
-4.1614 cut	-0.2498
-3.8586 danielle	-0.1771
-3.8586 danish	-0.1771
-3.8586 danishes	-0.1772
-3.3814 dark	-1.4050
-4.1614 david	-0.1773
-2.5914 day	-0.9252
-4.1614 days	-0.2468
-3.0457 dear	-1.1036
-3.6825 debit	-0.2761
-3.5575 decaf	-0.6156
-3.8586 deep	-0.4097
-4.1614 delight	-0.1773
-4.1614 denise	-0.2489
-3.0135 did	-1.3769
-3.8586 didn't	-0.2458
-3.8586 diet	-0.4111
-4.1614 different	-0.2448
-3.3145 dine	-0.7190
-2.7124 dining	-1.4604
-3.2054 dip	-0.3532
-3.0804 dipping	-1.1135
-4.1614 discontinued	-0.2443
-4.1614 dismay	-0.1773
-2.5575 do	-1.0144
-4.1614 does	-0.2466
-3.3145 doesn't	-0.5087
-3.4606 doing	-0.1708
-3.0135 dollar	-0.3219
-2.3603 dollars	-0.6540
-2.5575 don't	-0.6648
-3.8586 done	-0.1738
-2.8172 donut	-0.4664
-3.0804 donuts	-0.3726
-2.2458 double	-0.8338
-2.8374 doughnut	-0.4936
-3.4606 doughnuts	-0.3314
-3.6825 down	-0.2480
-3.5575 dozen	-0.6881
-3.5575 dream	-0.4593
-2.4606 drink	-0.7906
-3.3814 drinks	-0.4086
-3.4606 each	-0.3350
-3.5575 eat	-0.3165
-3.8586 eating	-0.4093
-4.1614 ed	-0.2492
-3.3145 egg	-0.3177
-3.0135 eight	-0.3271
-4.1614 eighteen	-0.2439
-3.0804 eighty	-0.3551
-3.3145 eleven	-0.4383
-2.9555 else	-0.8012
-4.1614 em	-0.2495
-3.5575 end	-0.6186
-4.1614 england	-0.2450
-3.5575 english	-0.6923
-2.8586 enjoy	-0.5623
-4.1614 enough	-0.2497
-3.5575 espresso	-0.6902
-4.1614 eva	-0.1773
-3.6825 even	-0.2429
-3.6825 evening	-1.0102
-4.1614 every	-0.2476
-2.6281 everything	-0.4236
-3.8586 exact	-0.3388
-4.1614 exactly	-0.2497
-3.1596 excuse	-1.0399
-4.1614 experience	-0.1773
-4.1614 expresso	-0.2434
-3.2565 extra	-0.2997
-4.1614 face	-0.1773
-4.1614 far	-0.1773
-3.8586 farmer's	-0.2494
-4.1614 fathers	-0.2487
-4.1614 fault	-0.1773
-4.1614 feature	-0.2491
-4.1614 feel	-0.2466
-4.1614 few	-0.2497
-3.2054 fifteen	-0.2883
-2.7124 fifty	-0.6255
-3.1596 fine	-0.2923
-4.1614 finishing	-0.1773
-3.6825 first	-0.1771
-2.2963 five	-0.9887
-3.8586 fix	-0.4092
-3.8586 follow	-0.4112
-3.1182 food	-0.8755
-2.0841 for	-0.9447
-3.6825 forgot	-0.2735
-3.1182 forty	-0.4899
-3.8586 forty-five	-0.2464
-2.6281 four	-0.3956
-4.1614 fourteen	-0.1773
-3.8586 free	-0.4109
-3.1596 french	-0.9797
-3.2054 fresh	-0.2393
-4.1614 freshly	-0.2498
-4.1614 friday	-0.1773
-4.1614 friend	-0.1773
-4.1614 fries	-0.1773
-3.5575 fritter	-0.2452
-3.8586 from	-0.2426
-3.8586 front	-0.3388
-4.1614 garbage	-0.1773
-3.8586 garlic	-0.2448
-3.8586 gave	-0.2322
-2.8374 get	-0.3642
-3.8586 gets	-0.4113
-3.8586 getting	-0.4044
-4.1614 ginger	-0.2498
-2.7282 give	-1.2630
-4.1614 glass	-0.2486
-3.2565 glazed	-0.3315
-2.4272 go	-0.6096
-3.3145 going	-0.2766
-3.4606 gonna	-0.2490
-2.2201 good	-0.7320
-3.8586 good-bye	-0.1704
-4.1614 goodbye	-0.1773
-3.5575 got	-0.3097
-3.6825 grab	-0.2399
-4.1614 grant	-0.1773
-3.2565 great	-0.4135
-3.1596 greek	-1.1083
-3.6825 green	-0.2761
-3.3814 grilled	-0.3689
-4.1614 grounded	-0.2465
-3.8586 guess	-0.3388
-3.8586 guest	-0.3388
-3.0135 guys	-0.2618
-4.1614 ha	-0.2481
-3.1596 half	-0.2119
-3.5575 ham	-0.6866
-3.3814 happy	-0.2469
-3.8586 harrison	-0.3388
-4.1614 has	-0.2436
-3.5575 hash	-0.4111
-3.3145 hashbrown	-0.4232
-3.6825 hashbrowns	-0.2749
-4.1614 hasn't	-0.2497
-2.0457 have	-0.5740
-3.5575 haven't	-0.3229
-4.1614 having	-0.2436
-3.6825 he	-0.2495
-4.1614 he's	-0.2497
-4.1614 hea	-0.1773
-3.3814 head	-0.2967
-3.8586 headsets	-0.1724
-4.1614 hear	-0.2476
-4.1614 heated	-0.1773
-2.5064 hello	-1.4433
-2.7617 help	-1.2382
-3.8586 henry	-0.3388
-3.8586 her	-0.1727
-2.4037 here	-0.8845
-3.6825 here's	-0.3381
-3.6825 hey	-0.2746
-2.5363 hi	-0.4936
-3.5575 him	-0.2433
-4.1614 hoh	-0.1773
-3.8586 hold	-0.2451
-3.8586 home_style	-0.4111
-4.1614 hon	-0.1773
-3.0135 honey	-0.3601
-4.1614 honey_dipped	-0.2494
-3.6825 hope	-0.3397
-4.1614 hopefully	-0.2429
-3.0457 hot	-0.4337
-3.2565 hour	-0.7205
-3.3814 house	-0.3690
-2.1773 how	-1.0517
-3.6825 how's	-0.3404
-4.1614 hundred	-0.2479
-1.9369 i	-0.9781
-2.9555 i'll	-0.3000
-2.8808 i'm	-0.3704
-3.3814 ice	-0.2700
-2.9835 iced	-0.5640
-3.1182 if	-0.7137
-2.3401 in	-0.7567
-4.1614 insert	-0.2429
-3.8586 inside	-0.2409
-3.8586 instead	-0.4101
-2.1596 is	-0.4131
-4.1614 isn't	-0.2498
-2.1343 it	-0.5481
-2.4192 it's	-0.3911
-3.2565 jalapeno	-0.2652
-4.1614 jared	-0.2468
-4.1614 jim	-0.1773
-4.1614 john	-0.2469
-3.3814 juice	-0.4090
-2.2963 just	-0.4366
-4.1614 keep	-0.2466
-4.1614 ketchup	-0.2466
-4.1614 kim	-0.1773
-3.5575 kind	-0.4588
-4.1614 kinds	-0.2486
-3.0457 know	-0.4447
-2.5798 large	-0.4039
-3.8586 late	-0.3388
-3.8586 later	-0.1732
-2.8374 latte	-0.6351
-4.1614 least	-0.2497
-4.1614 leave	-0.2476
-3.8586 leek	-0.2432
-3.8586 lemon	-0.2466
-2.7979 let	-1.4530
-4.1614 lettuce	-0.2478
-4.1614 light	-0.2496
-2.0914 like	-0.7458
-4.1614 line	-0.2491
-3.8586 listen	-0.4074
-3.8586 listening	-0.4074
-3.5575 little	-0.4598
-4.1614 logan	-0.1773
-3.3145 long	-0.2122
-4.1614 loyal	-0.2459
-3.8586 lunch	-0.2484
-2.9291 ma'am	-0.9522
-4.1614 machine	-0.2498
-3.0804 madam	-0.5615
-3.8586 made	-0.2431
-2.9835 make	-0.8588
-4.1614 mam	-0.1773
-4.1614 mango	-0.2485
-3.6825 many	-0.1757
-3.3814 maple	-0.4424
-3.8586 matter	-0.1773
-3.0457 may	-1.1411
-3.8586 maybe	-0.2486
-3.4606 mayo	-0.3359
-2.4694 me	-0.5459
-3.4606 meal	-0.3311
-4.1614 means	-0.2497
-2.3467 medium	-0.5691
-4.1614 medium_size	-0.2497
-4.1614 medium_sized	-0.2484
-4.1614 menu	-0.1773
-3.4606 mexican	-0.5603
-4.1614 mike	-0.1773
-2.3962 milk	-1.1992
-3.8586 milks	-0.3388
-4.1614 mind	-0.1773
-4.1614 mints	-0.1773
-3.6825 minute	-0.2711
-3.8586 minutes	-0.2374
-4.1614 mix	-0.1773
-3.4606 mocha	-0.3003
-3.3814 moment	-1.0084
-3.8586 money	-0.4112
-3.5575 more	-0.2437
-2.9835 morning	-0.3529
-4.1614 most	-0.2498
-4.1614 mothers	-0.2487
-4.1614 mousse	-0.1773
-4.1614 mozzarella	-0.1773
-3.8586 mrs	-0.4113
-3.5575 much	-0.6189
-2.7124 muffin	-0.8218
-3.6825 muffins	-0.2735
-3.8586 multi_grain	-0.3388
-3.3145 mustard	-0.3282
-3.0135 my	-1.0943
-4.1614 myself	-0.1773
-2.5064 name	-0.9320
-4.1614 napkin	-0.2468
-4.1614 near	-0.1773
-2.5798 need	-0.7783
-3.8586 needs	-0.2482
-4.1614 nervous	-0.2495
-4.1614 never	-0.2498
-3.3814 new	-0.3458
-3.8586 next	-0.2458
-4.1614 nice	-0.2487
-4.1614 night	-0.1773
-3.3145 nine	-0.2115
-4.1614 nineteen	-0.2479
-3.0135 ninety	-0.3944
-2.3401 no	-0.3797
-3.1596 noodle	-0.3694
-4.1614 noodles	-0.2497
-2.9555 not	-0.2650
-3.6825 nothing	-0.2780
-2.9555 now	-0.5668
-2.8808 number	-0.3625
-4.1614 nutella	-0.2491
-3.8586 o'clock	-0.2488
-4.1614 oat	-0.2497
-2.5685 of	-0.3210
-4.1614 off	-0.1773
-4.1614 often	-0.1773
-2.9835 oh	-1.3110
-1.9609 ok	-0.7227
-3.6825 okay	-0.2775
-3.3814 old-fashioned	-0.4312
-2.4272 on	-0.6957
-1.9778 one	-0.5879
-4.1614 one's	-0.2487
-4.1614 ones	-0.1773
-3.5575 onion	-0.3160
-3.8586 onions	-0.3388
-2.9291 only	-0.2954
-2.1640 or	-0.5021
-3.3814 orange	-0.5745
-2.4272 order	-0.8032
-3.8586 orders	-0.2469
-4.1614 original	-0.2452
-3.6825 other	-0.3500
-3.3814 our	-0.3503
-2.4968 out	-0.8020
-3.5575 outside	-0.6867
-3.8586 oven	-0.1770
-2.8172 over	-0.7261
-3.8586 owe	-0.3938
-4.1614 owners	-0.1773
-3.8586 pairing	-0.1722
-3.3814 panini	-0.3655
-4.1614 pardon	-0.2483
-4.1614 parfait	-0.1773
-4.1614 pastry	-0.2463
-3.4606 pay	-0.4812
-4.1614 paying	-0.2494
-4.1614 peanut	-0.2493
-3.5575 pecan	-0.2456
-3.8586 peppermint	-0.2440
-3.2565 pepsi	-0.2994
-3.3145 perfect	-0.4370
-3.8586 phone	-0.4107
-4.1614 pick	-0.2496
-4.1614 pie	-0.2497
-3.6825 pineapple	-0.2780
-4.1614 places	-0.2481
-2.5914 plain	-0.4614
-2.3743 please	-1.6677
-2.9291 pleasure	-0.4000
-2.6682 potato	-1.6006
-3.3814 prepare	-1.3983
-4.1614 priced	-0.1773
-3.4606 problem	-0.4807
-3.6825 proceed	-0.2780
-3.8586 promise	-0.4113
-4.1614 promotion	-0.2468
-4.1614 prompted	-0.1773
-3.5575 pumpkin	-0.4598
-3.8586 punch	-0.4093
-3.3814 put	-0.3641
-3.3814 raisin	-0.4888
-4.1614 ran	-0.2484
-3.4606 ranch	-0.4878
-3.1596 ready	-0.6702
-4.1614 realize	-0.2452
-3.5575 really	-0.1727
-4.1614 receipt	-0.1773
-4.1614 red	-0.2498
-2.8808 regular	-0.3702
-4.1614 remembers	-0.2429
-4.1614 rest	-0.2496
-4.1614 restricted	-0.1773
-2.5261 right	-0.7041
-3.3814 roast	-0.4812
-4.1614 roasted	-0.2497
-4.1614 roll	-0.2434
-4.1614 room	-0.2455
-3.4606 said	-0.2280
-2.9291 salad	-0.7399
-3.3814 same	-0.2366
-2.8374 sandwich	-0.5717
-4.1614 sandwiches	-0.1773
-4.1614 sat	-0.2455
-3.0135 sauce	-0.2720
-3.2054 sausage	-0.2551
-3.6825 say	-0.2415
-4.1614 school	-0.1773
-3.0457 seat	-0.3865
-2.9291 second	-0.5116
-3.8586 secretly	-0.4113
-2.9555 see	-0.3417
-3.8586 seed	-0.2474
-4.1614 seen	-0.2323
-4.1614 select	-0.2491
-3.8586 selene	-0.3388
-3.8586 separate	-0.4108
-3.6825 serve	-0.3259
-3.8586 served	-0.1754
-3.6825 sesame	-0.3483
-2.7979 seven	-0.4960
-3.8586 seven_up	-0.2437
-3.3814 seventeen	-0.2981
-3.0135 seventy	-0.4838
-4.1614 seventy-five	-0.1773
-4.1614 sharp	-0.2483
-3.5575 she	-0.1734
-3.5575 she's	-0.2491
-4.1614 short	-0.2498
-3.5575 shortcake	-0.3378
-3.6825 shot	-1.0807
-3.5575 should	-0.6874
-3.8586 show	-0.3938
-3.0135 side	-1.0460
-3.8586 sides	-0.3388
-4.1614 since	-0.2483
-1.8718 sir	-1.2152
-3.8586 sit	-0.2475
-4.1614 sitting	-0.2497
-2.8808 six	-0.4138
-4.1614 sixteen	-0.2479
-3.2565 sixty	-0.6869
-3.0457 size	-0.3845
-3.5575 slide	-0.6186
-2.2511 small	-0.4641
-3.8586 smith	-0.3388
-2.4353 so	-0.2531
-3.4606 some	-0.3051
-3.5575 someone	-0.3191
-3.4606 something	-0.2231
-4.1614 somewhat	-0.2497
-2.5575 sorry	-0.4087
-3.0804 soup	-0.8048
-4.1614 soups	-0.1773
-4.1614 special	-0.2482
-3.5575 spice	-0.2454
-3.0804 spicy	-0.5007
-3.4606 splenda	-0.4082
-4.1614 spying	-0.1773
-4.1614 staff	-0.2481
-4.1614 staffed	-0.1773
-4.1614 start	-0.1773
-4.1614 started	-0.2462
-3.8586 states	-0.1768
-3.2565 steeped	-0.9526
-4.1614 still	-0.2493
-3.3814 strawberry	-0.3765
-3.3814 strips	-0.4998
-2.8808 strudel	-0.6334
-3.5575 strudels	-0.2417
-4.1614 struggle	-0.2448
-4.1614 sub_bun	-0.2496
-3.6825 substitute	-0.2400
-2.4353 sugar	-1.0442
-3.1596 sugars	-1.2111
-4.1614 suggest	-0.2323
-3.8586 summer	-0.2496
-4.1614 super	-0.2498
-2.3962 sure	-0.6954
-2.9835 sweetener	-1.2166
-3.8586 swipe	-0.3388
-3.6825 swiss	-1.0102
-4.1614 switch	-0.2466
-4.1614 syrup	-0.1773
-4.1614 t_bacon	-0.2497
-3.1182 table	-0.4509
-4.1614 tables	-0.1773
-2.4272 take	-0.9405
-3.0804 taking	-1.0226
-3.6825 talk	-1.0788
-4.1614 talking	-0.2484
-2.4272 tea	-0.7834
-4.1614 team	-0.1773
-3.8586 tell	-0.2308
-2.8586 ten	-0.3642
-4.1614 testing	-0.2483
-2.3023 thank	-1.8458
-3.4606 thanks	-0.2306
-2.3023 that	-0.5428
-4.1614 that'll	-0.2490
-2.6825 that's	-0.4378
-1.9019 the	-0.3207
-3.6825 them	-0.1729
-3.2565 then	-0.2352
-2.7979 there	-0.9361
-3.8586 there's	-0.4051
-3.6825 these	-0.2428
-4.1614 they'll	-0.2459
-3.3814 they're	-0.2946
-4.1614 they've	-0.2497
-4.1614 thin	-0.2498
-4.1614 thing	-0.1773
-3.6825 think	-0.2269
-4.1614 thirteen	-0.2494
-3.2565 thirty	-0.6155
-2.4784 this	-0.6156
-3.3145 those	-0.2456
-2.7446 three	-0.5502
-4.1614 till	-0.1773
-3.3814 tim	-1.4049
-3.0804 timbits	-0.4089
-3.5575 time	-0.1734
-4.1614 tina	-0.1773
-4.1614 tired	-0.1773
-2.0490 to	-0.5190
-3.4606 toast	-0.2936
-2.6544 toasted	-1.2059
-2.5064 today	-1.0702
-4.1614 told	-0.2497
-3.4606 tomato	-0.3309
-4.1614 tomatos	-0.1773
-4.1614 tomorrow	-0.1773
-4.1614 tonight	-0.1773
-3.2565 too	-0.3934
-3.8586 top	-0.3388
-3.3145 total	-0.4351
-4.1614 totally	-0.2466
-3.8586 towards	-0.4051
-3.8586 trainee	-0.2392
-3.4606 tray	-0.6093
-4.1614 tray's	-0.2450
-3.2565 triple	-0.4868
-3.8586 tripple	-0.1772
-2.9043 try	-0.5075
-3.8586 turkey	-0.4111
-3.2565 twelve	-0.4862
-2.5468 twenty	-0.6553
-4.1614 twenty-five	-0.2477
-2.0229 two	-0.6871
-3.6825 type	-0.3458
-4.1614 understand	-0.1773
-3.8586 unfortunately	-0.4098
-3.8586 united	-0.4113
-3.5575 up	-0.3875
-3.4606 us	-0.6128
-3.8586 use	-0.4113
-4.1614 usually	-0.2497
-3.2054 vanilla	-0.2497
-4.1614 velvet	-0.2496
-3.3145 very	-0.3314
-4.1614 visa	-0.1773
-3.5575 wait	-0.2461
-3.8586 waiting	-0.1727
-2.3207 want	-0.6106
-3.8586 wanted	-0.2443
-3.5575 was	-0.2442
-3.0457 water	-0.6750
-3.8586 way	-0.1727
-2.4694 we	-0.8440
-3.2565 we'll	-0.3733
-4.1614 wearing	-0.1773
-2.6411 wedges	-0.9678
-3.4606 weekend	-0.3329
-3.8586 welcome	-0.3388
-3.8586 well	-0.1771
-4.1614 were	-0.2481
-2.5575 what	-0.4806
-4.1614 what's	-0.2429
-4.1614 whatever	-0.2495
-3.2054 wheat	-0.5576
-4.1614 when	-0.2498
-4.1614 wherever	-0.2463
-2.6972 which	-0.5510
-3.6825 whipped	-1.0798
-3.0804 white	-0.3061
-3.8586 who	-0.2468
-3.2054 whole	-0.9997
-3.5575 why	-0.2486
-2.6682 will	-0.5969
-4.1614 wiping	-0.2496
-2.0012 with	-0.7553
-4.1614 without	-0.2497
-3.8586 wonderful	-0.2486
-3.6825 work	-0.1765
-4.1614 working	-0.1773
-3.2054 works	-1.1757
-3.8586 worries	-0.2462
-3.4606 worry	-0.6106
-2.0914 would	-1.6544
-3.6825 wrap	-1.0102
-4.1614 ya	-0.1773
-3.8586 ye	-0.2469
-2.0951 yeah	-0.3995
-3.8586 year	-0.1759
-4.1614 yelling	-0.1773
-3.2565 yep	-0.3870
-2.8172 yes	-0.5435
-4.1614 yet	-0.1773
-3.8586 yogurt	-0.3388
-1.4037 you	-0.8168
-3.5575 you'll	-0.3226
-3.3145 you're	-0.2485
-4.1614 you've	-0.2457
-1.8036 your	-0.6870
-4.1614 yours	-0.1773
-4.1614 yusef	-0.1773

\2-grams:
-0.0002 </s> <s> 0.0639
-2.1181 <s> a -0.4706
-3.2606 <s> absolutely 0.5442
-3.7076 <s> after 0.1007
-3.7076 <s> again -0.1274
-2.9089 <s> ah 0.1417
-2.8238 <s> all -0.2602
-3.7076 <s> almost -0.0988
-3.7076 <s> alright 0.1007
-3.7076 <s> also 0.0787
-3.2606 <s> an -0.0911
-1.4090 <s> and -0.1690
-2.2693 <s> any 0.1103
-2.0475 <s> anything -0.1829
-3.2606 <s> apple -0.0249
-2.2024 <s> are -0.4058
-2.9089 <s> at 0.3861
-2.9314 <s> awesome 0.3850
-2.9314 <s> b_l_t 0.1020
-3.2606 <s> bacon -0.0480
-3.7076 <s> bag 0.2611
-2.8238 <s> bagel 0.2915
-3.7076 <s> be -0.0448
-3.7076 <s> because -0.0988
-2.9089 <s> big -0.1090
-3.7076 <s> biscuit -0.0001
-2.5878 <s> black 0.2911
-3.7076 <s> blue 0.1007
-3.2606 <s> boston 0.7106
-3.7076 <s> both -0.0806
-2.9089 <s> bottle 0.3003
-3.7076 <s> box 0.0529
-3.7076 <s> breakfast -0.0001
-3.7076 <s> brown -0.0988
-2.8238 <s> but -0.0497
-2.9314 <s> butter 0.4159
-2.3485 <s> bye 0.2437
-2.0061 <s> can -1.1574
-2.9089 <s> cappuccino 0.0891
-3.7076 <s> cash 0.2622
-3.7076 <s> change -0.1342
-3.2606 <s> cheddar -0.0314
-3.7076 <s> cheese -0.1453
-2.3943 <s> chicken -0.1615
-3.2606 <s> chili 0.0183
-3.7076 <s> chilly 0.9336
-2.9314 <s> chipotle -0.3114
-3.7076 <s> chipotle's 0.1007
-2.1724 <s> chocolate -0.0810
-3.7076 <s> cinnamon -0.0419
-3.7076 <s> coffee 0.0930
-3.7076 <s> coke 0.1007
-2.9089 <s> combo 0.3598
-3.2606 <s> cookie 0.0409
-2.2346 <s> could 0.0000
-2.8238 <s> cream 0.2784
-3.7076 <s> creamy 0.0096
-2.9314 <s> credit 0.1007
-2.5878 <s> crispy 0.5008
-3.7076 <s> croissants -0.0988
-3.7076 <s> cup 0.0094
-3.7076 <s> danish -0.0419
-3.7076 <s> dark 1.2561
-3.2606 <s> debit 0.2015
-3.2606 <s> deep 0.0392
-2.3943 <s> did 0.1919
-3.7076 <s> different 0.1007
-3.2606 <s> dine 0.3489
-2.8238 <s> dining 1.0088
-3.2606 <s> dipping 0.7419
-1.9683 <s> do -0.6232
-3.7076 <s> does 0.1007
-3.7076 <s> doesn't -0.1211
-3.7076 <s> don't -0.1111
-2.9089 <s> donut 0.1581
-2.2024 <s> double -0.4466
-3.7076 <s> dream 0.3109
-3.7076 <s> drinks -0.1162
-3.7076 <s> eat -0.0988
-3.7076 <s> eating 0.2622
-3.7076 <s> ed 0.1007
-3.2606 <s> egg 0.1888
-2.8238 <s> eight 0.1163
-2.9089 <s> eleven -0.0203
-3.7076 <s> em 0.1007
-3.7076 <s> england 0.1007
-2.0932 <s> enjoy 0.1524
-2.2346 <s> everything -0.1149
-3.7076 <s> exactly 0.1007
-2.3943 <s> excuse 0.0872
-3.7076 <s> extra -0.1247
-3.7076 <s> farmer's -0.0419
-2.9089 <s> fine -0.0468
-2.9314 <s> five -0.5416
-2.5950 <s> for 0.1201
-2.2346 <s> four 0.0161
-3.2606 <s> french 0.0009
-2.5950 <s> fresh 0.0049
-3.7076 <s> fries 0.1007
-3.7076 <s> garlic -0.0419
-3.2606 <s> getting 0.0392
-3.2606 <s> give -0.1168
-3.7076 <s> glass 0.1007
-2.2024 <s> go -0.1795
-1.9683 <s> good 0.2426
-3.7076 <s> good-bye -0.0419
-3.7076 <s> got 0.0096
-3.7076 <s> great -0.1247
-2.8238 <s> greek 0.7642
-3.7076 <s> green 0.0787
-2.9089 <s> grilled 0.1587
-3.7076 <s> ha 0.1007
-2.8238 <s> half -0.0981
-3.2606 <s> ham 0.5442
-2.5878 <s> happy 0.1007
-3.7076 <s> harrison 0.2622
-3.2606 <s> hashbrown 0.1150
-3.2606 <s> hashbrowns 0.2015
-2.2024 <s> have -1.0981
-3.7076 <s> haven't -0.0988
-3.7076 <s> he's 0.1007
-1.7050 <s> hello 0.0351
-1.8714 <s> here -0.2896
-3.2606 <s> here's 0.2015
-2.9089 <s> hey 0.0661
-1.8170 <s> hi 0.0558
-3.7076 <s> hoh 0.1007
-3.7076 <s> hold -0.0419
-3.7076 <s> home_style 0.2622
-2.9089 <s> honey 0.0432
-3.7076 <s> hopefully 0.1007
-3.2606 <s> hot -0.2428
-1.6673 <s> how 0.3009
-3.7076 <s> how's 0.0787
-1.4972 <s> i -0.1605
-2.3943 <s> i'll 0.0350
-2.2024 <s> i'm 0.0693
-3.7076 <s> ice -0.0500
-3.2606 <s> iced 0.1182
-2.9314 <s> if 0.0531
-2.9314 <s> in -0.4824
-3.7076 <s> inside -0.0419
-2.1724 <s> is -0.3029
-2.2346 <s> it -0.2819
-1.7464 <s> it's 0.0020
-3.2606 <s> jalapeno 0.0594
-3.7076 <s> juice -0.1162
-1.7574 <s> just -0.1263
-3.7076 <s> ketchup 0.1007
-2.1181 <s> large 0.1078
-2.9089 <s> latte 0.3914
-3.7076 <s> lemon -0.0419
-2.2024 <s> let -0.0854
-3.7076 <s> lettuce 0.1007
-2.9089 <s> like -0.1236
-3.7076 <s> listen 0.2622
-3.2606 <s> long -0.2886
-3.2606 <s> maple 0.2941
-2.2346 <s> may 0.0322
-3.2606 <s> maybe 0.1007
-3.7076 <s> meal 0.1720
-1.7150 <s> medium 0.1941
-3.7076 <s> medium_size 0.1007
-3.2606 <s> mexican -0.0656
-2.9089 <s> milk 0.7054
-2.9089 <s> mocha 0.0078
-3.7076 <s> more -0.0988
-2.5950 <s> morning 0.1703
-3.7076 <s> muffin 0.3133
-3.7076 <s> multi_grain 0.2622
-3.7076 <s> mustard 0.1334
-2.3943 <s> my -0.1091
-3.2606 <s> name 0.5230
-3.7076 <s> napkin 0.1007
-3.7076 <s> never 0.1007
-3.7076 <s> next -0.0419
-2.9089 <s> nine -0.1667
-3.7076 <s> nineteen 0.1007
-3.2606 <s> ninety -0.0424
-1.7574 <s> no 0.1405
-2.9089 <s> not -0.1119
-3.7076 <s> nothing 0.0787
-2.9314 <s> now -0.0789
-2.5950 <s> number 0.0369
-2.3943 <s> oh -0.7163
-1.4972 <s> ok 0.3619
-3.7076 <s> okay 0.0787
-2.9089 <s> old-fashioned -0.5865
-2.5878 <s> on -0.0208
-1.6495 <s> one 0.2166
-2.9314 <s> only -0.3046
-2.9089 <s> or -0.1337
-3.7076 <s> orange 0.1175
-3.7076 <s> original 0.1007
-3.2606 <s> other -0.1443
-3.2606 <s> out -0.1186
-3.7076 <s> outside -0.0988
-2.8238 <s> over 0.0638
-3.7076 <s> panini 0.0992
-3.7076 <s> pardon 0.1007
-3.7076 <s> peppermint -0.0419
-3.7076 <s> pepsi 0.0863
-3.7076 <s> perfect -0.1211
-3.2606 <s> phone 0.0392
-3.7076 <s> pick 0.1007
-2.2693 <s> plain -0.0437
-3.7076 <s> please 1.3423
-2.9314 <s> pleasure 0.0806
-3.2606 <s> potato 0.8182
-3.7076 <s> pumpkin 0.3109
-3.7076 <s> punch 0.2622
-3.2606 <s> raisin -0.0806
-3.7076 <s> ranch 0.1981
-3.7076 <s> ready 0.2240
-2.5878 <s> regular 0.0379
-2.9314 <s> right 0.3390
-3.2606 <s> salad -0.0644
-2.9089 <s> same -0.0419
-2.9314 <s> sausage -0.0552
-2.9089 <s> see -0.1672
-3.2606 <s> separate 0.0392
-2.2024 <s> seven 0.1073
-3.7076 <s> seven_up -0.0419
-3.7076 <s> seventeen -0.1162
-3.7076 <s> seventy -0.0540
-3.7076 <s> sharp 0.1007
-3.2606 <s> she -0.0419
-3.7076 <s> she's -0.0988
-3.7076 <s> should -0.0988
-2.9314 <s> sir 0.3467
-2.5878 <s> six -0.0742
-3.7076 <s> sixteen 0.1007
-3.2606 <s> size 0.0003
-1.7574 <s> small 0.0086
-1.7253 <s> so 0.0507
-3.2606 <s> something -0.2501
-2.2024 <s> sorry 0.1340
-2.8238 <s> spicy -0.0707
-3.7076 <s> splenda 0.3316
-3.2606 <s> steeped 0.5821
-3.2606 <s> strawberry -0.0806
-3.7076 <s> sub_bun 0.1007
-2.0263 <s> sure 0.3176
-3.7076 <s> swipe 0.2622
-2.3485 <s> take 0.1177
-3.7076 <s> taking 0.6291
-3.2606 <s> tea -0.1358
-2.5950 <s> ten -0.1381
-1.5926 <s> thank 0.1074
-2.9314 <s> thanks 0.1583
-2.9089 <s> that -0.2563
-2.0061 <s> that's 0.0815
-2.1724 <s> the -0.1226
-3.2606 <s> then -0.0988
-2.8238 <s> there -0.3883
-3.7076 <s> there's 0.2622
-3.7076 <s> they'll 0.1007
-2.9089 <s> they're -0.1436
-3.7076 <s> they've 0.1007
-3.7076 <s> thirty 0.0340
-2.0475 <s> this -0.3973
-3.2606 <s> those -0.0911
-2.2346 <s> three 0.0974
-2.8238 <s> tim 0.9516
-3.2606 <s> timbits 0.1597
-3.7076 <s> tired 0.1007
-3.7076 <s> to -0.1104
-2.9089 <s> toast 0.0078
-2.5950 <s> toasted 0.7670
-2.9314 <s> today -0.5484
-3.7076 <s> told 0.1007
-3.7076 <s> too -0.1247
-2.9314 <s> total -0.3155
-3.7076 <s> totally 0.1007
-3.7076 <s> tray 0.1981
-3.7076 <s> try -0.0810
-3.2606 <s> turkey 0.0392
-2.9314 <s> twelve -0.2416
-2.5878 <s> twenty 0.2572
-1.6003 <s> two 0.1564
-3.7076 <s> unfortunately 0.2622
-3.7076 <s> vanilla -0.0001
-3.7076 <s> very -0.0656
-3.7076 <s> visa 0.1007
-3.7076 <s> wait -0.0988
-2.0061 <s> we -0.0277
-3.7076 <s> we'll -0.1247
-3.7076 <s> welcome 0.2622
-3.7076 <s> well -0.0419
-2.0061 <s> what 0.1779
-3.7076 <s> what's 0.1007
-2.3071 <s> which 0.3323
-3.2606 <s> whipped 0.7106
-3.2606 <s> white 0.0155
-3.2606 <s> who 0.1007
-3.2606 <s> whole 0.6279
-2.9089 <s> why -0.0513
-3.7076 <s> will -0.1429
-2.2346 <s> with -0.0426
-1.5561 <s> would -0.6784
-3.2606 <s> ye 0.1007
-1.4677 <s> yeah 0.2572
-2.5878 <s> yep 0.2584
-2.1181 <s> yes 0.1864
-3.7076 <s> yogurt 0.2622
-1.3991 <s> you -0.5207
-2.9314 <s> you'll 0.0767
-2.5878 <s> you're 0.0550
-3.7076 <s> you've 0.1007
-1.6081 <s> your 0.0342
-1.8925 a </s> 2.9332
-2.2218 a bag 0.3446
-2.6687 a beverage -0.0988
-2.2218 a biscuit -0.2136
-2.6687 a bottle -0.0001
-2.6687 a chicken -0.0896
-2.6687 a chili -0.0424
-2.6687 a chocolate -0.1387
-1.5561 a coffee -0.0024
-1.1055 a combo -0.2613
-2.2218 a container 0.1007
-2.2218 a cookie -0.2232
-1.8700 a cream -0.2551
-2.2218 a croissant 0.4408
-2.2218 a cup -0.2136
-2.6687 a day 0.5276
-2.6687 a dipping 0.9649
-2.6687 a dollar -0.0304
-2.2218 a donut -0.1002
-1.8925 a double 0.0271
-2.6687 a doughnut -0.1404
-2.6687 a dozen -0.0988
-1.1957 a drink -0.4572
-2.6687 a few 0.1007
-2.2218 a free 0.0392
-0.8625 a good -0.6506
-1.5489 a great -0.0770
-2.6687 a grilled 0.0992
-2.6687 a ham 0.3568
-2.6687 a hash 0.0096
-2.6687 a hashbrown -0.0656
-2.6687 a head -0.1162
-2.6687 a home_style 0.2622
-2.6687 a iced -0.0611
-2.6687 a jalapeno 0.0227
-1.8925 a little 0.0466
-1.8700 a medium -0.1687
-2.6687 a medium_sized 0.1007
-2.6687 a milk -0.1459
-1.8700 a minute 0.0661
-2.6687 a moment 0.1175
-1.8700 a muffin 0.1974
-1.4065 a name -0.3356
-2.6687 a new -0.1162
-2.6687 a nice 0.1007
-2.6687 a number -0.0811
-2.6687 a perfect -0.0656
-2.6687 a raisin -0.1162
-2.6687 a ranch -0.1093
-2.6687 a salad 0.2031
-2.6687 a sandwich -0.1404
-1.1957 a seat 0.0660
-1.8925 a second -0.2895
-2.6687 a sesame 0.0787
-1.0544 a small -0.1564
-2.6687 a steeped 0.8052
-2.6687 a strawberry 0.0992
-1.4065 a strudel 0.3916
-2.6687 a t_bacon 0.1007
-2.6687 a table -0.1315
-2.6687 a tea -0.1279
-1.8925 a tray 0.3167
-2.6687 a triple 0.0227
-2.2218 a wonderful 0.1007
-0.2818 about that 0.0565
-1.0581 about you -0.1447
-0.1624 absolutely </s> 2.4056
-0.9612 absolutely awesome 0.2240
-0.3591 accounting </s> 3.1975
-0.3591 actually three 0.0618
-0.8616 add a -0.0998
-1.6379 add any -0.0962
-1.6379 add cheese -0.1262
-1.6379 add cream -0.0464
-1.6379 add our -0.0500
-0.7541 add potato 0.7368
-0.8391 add some -0.1090
-1.6379 add two -0.1477
-1.1909 add your -0.3671
-0.3591 after that -0.1465
-0.6215 afternoon </s> 2.8930
-1.5052 afternoon dear 1.0270
-0.7065 afternoon hi -0.2066
-1.5052 afternoon ma'am 0.6291
-0.7065 afternoon sir 0.2054
-1.5052 afternoon what -0.1197
-0.5371 again </s> 2.9332
-1.3134 again anything 0.3675
-1.3134 again how -0.1232
-0.8664 again please 1.1193
-1.3134 again sir 0.3325
-0.0375 ah would 0.1730
-0.4154 ahead </s> 2.1748
-1.5352 ahead dear 1.0270
-0.4154 ahead please 0.3196
-1.5352 ahead sir 0.3325
-1.5352 ahead when 0.1007
-0.3591 ale </s> 3.1975
-0.7058 all </s> 2.8930
-1.5896 all chocolate -0.0351
-0.8133 all for -0.3831
-1.5896 all good -0.0497
-0.8133 all right 0.3274
-1.5896 all works 0.8509
-1.5896 all yours 0.1007
-0.9612 almost eleven -0.1211
-0.9612 almost like -0.1446
-0.9612 almost near 0.1007
-0.9612 almost ready 0.2240
-0.8362 already </s> 3.1975
-0.8362 already has 0.1007
-0.8362 already know -0.0458
-0.3591 alright yeah -0.0052
-0.8362 also a -0.1090
-0.3892 also not -0.3375
-0.3591 always call 0.0787
-1.5052 am bringing 0.1007
-1.5052 am i -0.1479
-0.7065 am so -0.9190
-0.1919 am sorry -0.2807
-0.3591 amount of -0.1352
-1.2042 an apple 0.1981
-1.2042 an awesome -0.1297
-0.7572 an espresso 0.1338
-1.2042 an extra -0.1247
-1.2042 an hour -0.0769
-1.2042 an old-fashioned 0.2053
-1.8867 and </s> 2.4056
-1.5728 and a -0.2857
-2.6855 and again -0.1274
-2.6855 and any -0.0990
-1.5656 and are -0.4314
-2.6855 and bagel 0.1460
-2.6855 and browned 0.1007
-2.6855 and butter 0.2611
-1.9092 and can -0.1662
-1.9092 and cheddar -0.0156
-1.8017 and cheese -0.1794
-2.6855 and chicken -0.0399
-2.2385 and chili -0.0217
-2.6855 and chipotle 0.0449
-2.2385 and chocolate -0.0728
-2.6855 and coffee 0.0930
-2.2385 and cookies -0.1238
-2.6855 and cream -0.0464
-2.6855 and denise 0.1007
-2.6855 and did 0.9970
-2.6855 and donuts 0.1286
-2.2385 and double 0.1000
-1.8867 and drink 0.1733
-2.6855 and egg 0.1334
-2.6855 and eight -0.1353
-2.2385 and eighty -0.2301
-1.9092 and fifteen 0.0334
-1.5656 and fifty 0.2685
-1.9092 and five -0.0626
-2.2385 and forty 0.1523
-2.6855 and four -0.1144
-2.6855 and half -0.1297
-2.2385 and here 0.1994
-2.6855 and honey -0.1093
-1.8867 and how -0.2565
-1.3721 and i -0.4801
-2.2385 and i'll -0.2947
-2.6855 and iced 0.0571
-2.6855 and jalapeno -0.1247
-2.2385 and large -0.0730
-2.6855 and may 0.9970
-2.6855 and medium -0.0371
-2.6855 and muffin -0.1304
-2.2385 and now -0.1044
-1.2472 and one -0.4079
-1.8867 and over -0.5528
-2.6855 and plain -0.1345
-2.6855 and please 1.3423
-2.6855 and potato 1.0412
-2.6855 and serve 0.0787
-2.2385 and seventy 0.0998
-2.6855 and she -0.0988
-2.6855 and sit -0.0419
-1.5656 and small -0.2578
-2.6855 and soup 0.4877
-1.9092 and sugar 0.1290
-2.6855 and sure 0.3207
-2.6855 and syrup 0.1007
-2.6855 and ten -0.0695
-2.2385 and that -0.3517
-1.8867 and that's -0.1292
-1.5656 and the -0.1223
-1.9092 and then -0.0419
-2.2385 and these 0.0006
-2.2385 and thirty -0.1890
-1.8017 and this -0.2347
-2.6855 and those -0.1211
-2.6855 and to -0.1296
-2.6855 and today 0.6106
-2.6855 and twelve 0.0340
-1.3263 and two -0.3034
-2.6855 and water 0.2981
-2.6855 and we'll 0.0863
-2.2385 and what -0.3045
-1.5728 and which -0.0789
-1.8867 and would 0.8512
-1.3721 and you -0.1288
-1.1802 and your -0.0893
-0.2132 angelo </s> 2.9745
-0.6111 another bag 0.2891
-1.0581 another hot -0.0458
-1.0581 another one -0.0850
-1.0581 another whole 0.8509
-1.2923 any breakfast -0.3086
-1.7393 any cream -0.1435
-0.9406 any dipping 0.1730
-0.8556 any doughnut -0.2641
-0.9631 any drink -0.1406
-1.7393 any drinks -0.1162
-1.7393 any in -0.0554
-1.7393 any more -0.0988
-1.7393 any muffin -0.1425
-1.7393 any muffins -0.0806
-1.7393 any of -0.1442
-1.7393 any potato 1.0412
-1.7393 any soup -0.1342
-1.7393 any two -0.1307
-1.7208 anything </s> 3.1975
-0.1576 anything else 0.0734
-0.9446 anything for -0.3917
-1.7208 anything i -0.1111
-1.7208 anything to -0.1296
-0.3591 anywhere </s> 3.1975
-0.3591 apologize for -0.0513
-0.2593 apple fritter -0.0513
-1.0581 apple juice 0.1175
-1.0581 apple pie 0.1007
-1.5048 are </s> 2.4056
-2.3036 are already -0.0806
-2.3036 are doing -0.1093
-2.3036 are double 0.0888
-1.5274 are ok -0.1464
-2.3036 are testing 0.1007
-2.3036 are two -0.0987
-2.3036 are very -0.1211
-2.3036 are with -0.0741
-2.3036 are yeah -0.0052
-0.0872 are you -0.7324
-2.3036 are your -0.1426
-0.3591 around </s> 3.1975
-0.9612 as </s> 3.1975
-0.9612 as long -0.1211
-0.9612 as well -0.0419
-0.9612 as you're -0.1211
-0.3591 assorted </s> 3.1975
-1.4383 at a -0.1482
-1.4383 at least 0.1007
-0.1249 at the -0.3320
-1.4383 at your -0.1381
-0.2393 awesome </s> 2.1748
-1.3591 awesome danish -0.0419
-1.3591 awesome day 0.5276
-1.3591 awesome ok 0.1178
-1.3591 awesome so -0.1389
-0.4634 b_l_t </s> 2.4056
-0.8152 b_l_t later 0.1007
-1.2622 b_l_t on 0.0518
-1.2622 b_l_t which -0.0089
-1.2622 b_l_t yeah -0.0052
-0.2593 back </s> 2.4056
-1.0581 back for -0.0513
-1.0581 back in -0.1462
-0.8152 bacon </s> 2.9745
-1.2622 bacon b_l_t 0.0340
-1.2622 bacon bagel 0.1460
-1.2622 bacon club -0.0419
-0.8152 bacon on -0.1712
-1.2622 bacon which -0.1058
-0.3591 bad </s> 3.1975
-0.2139 bag </s> 2.3052
-1.6144 bag box 0.0529
-1.6144 bag i -0.1139
-1.1674 bag is -0.3667
-1.6144 bag one -0.1416
-1.1674 bag yeah 0.0125
-0.3070 bagel </s> 1.7902
-1.7754 bagel and -0.1243
-2.2224 bagel double -0.1426
-2.2224 bagel four -0.0326
-2.2224 bagel hello -0.1371
-2.2224 bagel here 0.0233
-2.2224 bagel is -0.1472
-1.4462 bagel ok -0.1464
-1.7754 bagel plain -0.1291
-2.2224 bagel right 0.2902
-1.3387 bagel sir 0.0280
-2.2224 bagel sure 0.3207
-2.2224 bagel to -0.1476
-0.8219 bagel toasted 0.3067
-2.2224 bagel which -0.0089
-1.7754 bagel will -0.2030
-2.2224 bagel with -0.1478
-2.2224 bagel would 0.9649
-0.7572 bagels </s> 2.9745
-1.2042 bagels and -0.1482
-1.2042 bagels four -0.1124
-1.2042 bagels here 0.0233
-0.7572 bagels toasted -0.1323
-0.3591 bagged tea 0.1763
-0.1743 balance </s> 2.8930
-0.3591 banana donut 0.0987
-0.3591 barbecue honey -0.0304
-0.6706 be all -0.7535
-1.3435 be at 0.2300
-1.7905 be back 0.1981
-1.7905 be dine 0.5719
-1.3435 be dining 1.0903
-1.7905 be fine 0.0279
-1.3435 be five -0.1111
-1.7905 be good -0.0497
-1.7905 be like -0.1475
-0.9917 be on 0.0500
-1.7905 be over 0.2391
-1.3435 be ready -0.3154
-1.7905 be right -0.1447
-1.7905 be served -0.0419
-1.7905 be seventy -0.1353
-1.7905 be toasted 0.1390
-0.3591 beans </s> 3.1975
-0.9612 because </s> 3.1975
-0.9612 because four -0.1332
-0.9612 because it's -0.1456
-0.9612 because you -0.1422
-0.3591 becomes a -0.1136
-0.8362 been bad 0.1007
-0.8362 been served -0.0419
-0.8362 been short 0.1007
-0.3591 berry </s> 3.1975
-0.2132 better </s> 2.9745
-0.1624 beverage </s> 2.4056
-0.9612 beverage to -0.1030
-0.3591 beverages </s> 3.1975
-0.6111 big bag 0.2891
-1.0581 big cup -0.1274
-1.0581 big honey -0.0594
-1.0581 big or -0.1370
-0.5371 biscuit </s> 2.9332
-0.8664 biscuit and -0.1362
-0.5146 biscuit or -0.1399
-0.9612 bit </s> 3.1975
-0.9612 bit extra 0.0863
-0.9612 bit nervous 0.1007
-0.9612 bit of -0.1442
-0.2156 black </s> 2.2004
-1.7208 black box -0.1274
-1.2738 black coffee -0.1300
-1.7208 black latte 0.2902
-1.7208 black sir 0.3325
-1.7208 black sorry 0.0013
-0.9221 black tea 0.0896
-0.0375 blend </s> 2.4056
-0.3591 blue berry 0.1007
-0.3591 blueberry muffin 0.3133
-0.0375 boston cream -0.0453
-0.8362 both are -0.1469
-0.3892 both sides 0.0392
-1.3134 bottle </s> 3.1975
-0.5371 bottle of -0.3743
-1.3134 bottle small -0.1170
-0.5146 bottle water 0.2025
-0.3591 bottles of -0.1352
-0.4296 box </s> 2.8930
-1.3134 box ma'am 0.6291
-1.3134 box next -0.0419
-1.3134 box of -0.1442
-1.3134 box yeah -0.1143
-0.3591 bran or -0.1437
-0.3591 bread </s> 3.1975
-1.3134 breakfast combo -0.1450
-0.5371 breakfast sandwich 0.1977
-0.8664 breakfast today 0.3876
-0.8664 breakfast will -0.2030
-0.9631 bring a -0.3732
-1.2923 bring everything -0.3562
-0.9406 bring it -0.9297
-1.7393 bring out -0.1450
-1.2923 bring the -0.1135
-1.7393 bring to -0.1296
-0.9406 bring you -0.0744
-0.4771 bring your -0.0924
-0.3591 bringing </s> 3.1975
-0.3591 broccoli </s> 3.1975
-0.1849 broth </s> 2.9332
-0.9612 brown </s> 3.1975
-0.9612 brown bread 0.1007
-0.9612 brown muffin 0.3133
-0.9612 brown or -0.1370
-0.3591 browned </s> 3.1975
-0.6601 browns </s> 3.1975
-0.6601 browns right -0.1147
-0.3591 buddy </s> 3.1975
-0.3010 bun </s> 2.3923
-1.6144 bun for -0.0513
-0.7306 bun or -0.2802
-0.8156 bun would 0.1730
-0.3591 burnt </s> 3.1975
-0.6601 busy </s> 3.1975
-0.6601 busy but -0.1297
-1.3591 but don't -0.1111
-1.3591 but i -0.0725
-1.3591 but it -0.1257
-1.3591 but it's -0.1010
-1.3591 but unfortunately 0.2622
-1.3591 but we 0.0360
-0.9121 but yeah -0.2282
-0.9121 but you -0.0926
-0.2139 butter </s> 2.3052
-1.6144 butter and -0.1437
-1.6144 butter cookie 0.0094
-1.6144 butter croissant -0.1342
-1.1674 butter on -0.3621
-1.6144 butter toast -0.0271
-1.6144 butter wedges 0.3410
-0.3591 by the -0.1424
-0.5018 bye </s> 2.3326
-1.6144 bye honey -0.1093
-1.6144 bye i -0.1459
-1.1674 bye my 0.4730
-1.6144 bye pleasure 0.0271
-1.1674 bye sir 0.1095
-0.8381 bye take -0.3341
-0.3591 bye-bye </s> 3.1975
-0.3892 call it -0.1456
-0.8362 call your -0.0853
-0.3591 camp day 0.5276
-1.5857 can </s> 2.4056
-2.3844 can add -0.1390
-2.3844 can change -0.1342
-2.3844 can check -0.1342
-2.3844 can choose 0.1007
-1.9374 can do -0.1307
-1.9374 can get -0.3460
-2.3844 can go -0.0215
-0.8212 can have 0.0314
-1.9374 can help -0.3242
-0.3625 can i -1.5084
-2.3844 can make 0.3280
-2.3844 can only -0.1378
-1.5857 can proceed 0.0661
-2.3844 can punch 0.2622
-2.3844 can select 0.1007
-2.3844 can show 0.2622
-1.9374 can substitute 0.0006
-2.3844 can suggest 0.1007
-0.9461 can take -0.4146
-1.9374 can talk 0.7106
-2.3844 can understand 0.1007
-1.9374 can use 0.0392
-1.9374 can you -0.1468
-0.3591 canada day 0.5276
-0.3591 canadian yeah -0.0052
-0.9612 cap </s> 3.1975
-0.9612 cap too -0.0769
-0.5142 cap with -0.1441
-0.3591 capp </s> 3.1975
-0.4753 cappuccino </s> 2.8930
-1.3591 cappuccino if 0.4152
-1.3591 cappuccino medium -0.1306
-1.3591 cappuccino no -0.1462
-1.3591 cappuccino without 0.1007
-1.3591 cappuccino yeah -0.1475
-0.3591 cappuccinos chills 0.1007
-0.3591 caramel </s> 3.1975
-0.2879 card </s> 2.3326
-1.4005 card because -0.0988
-1.4005 card doesn't -0.1211
-1.4005 card right 0.2902
-1.4005 card yeah -0.0052
-0.1935 care </s> 2.1748
-1.3134 care bye 0.0152
-1.3134 care hope 0.0787
-1.3134 care i -0.1025
-1.1373 carry </s> 3.1975
-1.1373 carry a -0.1482
-1.1373 carry ginger 0.1007
-1.1373 carry mustard 0.1334
-1.1373 carry sesame 0.0787
-1.1373 carry that 0.1345
-0.2132 cash </s> 2.9745
-0.2016 cents </s> 1.7031
-2.2042 cents change -0.1061
-1.4054 cents each -0.6199
-1.4054 cents extra -0.7056
-2.2042 cents ma'am 0.6291
-2.2042 cents or -0.1472
-1.0844 cents please 0.3196
-1.4054 cents sir -0.4594
-2.2042 cents to -0.1377
-1.0916 cents with -0.1441
-0.3604 change </s> 2.3326
-1.4731 change for -0.1475
-1.4731 change i -0.1111
-1.4731 change it 0.0331
-1.0261 change sir 0.1095
-1.4731 change twenty 0.2084
-0.3591 changer </s> 3.1975
-0.3591 charge you -0.1407
-0.6743 check </s> 2.4056
-1.4731 check if -0.1315
-1.4731 check it -0.1473
-1.4731 check on -0.0699
-1.4731 check please 1.3423
-1.4731 check the -0.1461
-1.0261 check you -0.3701
-0.6743 check your -0.8682
-0.7572 cheddar </s> 2.9745
-0.7572 cheddar cheese 0.0133
-1.2042 cheddar mozzarella 0.1007
-1.2042 cheddar now 0.2363
-1.2042 cheddar on -0.1391
-0.2304 cheese </s> 1.8694
-2.0667 cheese and -0.1482
-1.6197 cheese bagel -0.0770
-1.2679 cheese blend 0.1417
-2.0667 cheese cheese 0.2363
-2.0667 cheese chilly 0.9336
-2.0667 cheese four -0.0326
-1.2904 cheese on -0.0492
-1.2904 cheese panini 0.0710
-2.0667 cheese sandwich 0.1142
-2.0667 cheese to -0.1476
-2.0667 cheese wedges 0.3410
-2.0667 cheese would 0.9649
-0.3591 cheeses sorry 0.0013
-0.6990 chicken </s> 2.3923
-1.2361 chicken broth 0.0466
-2.0123 chicken ma'am 0.6291
-0.6532 chicken noodle 0.0469
-2.0123 chicken noodles 0.1007
-2.0123 chicken potato 1.0412
-0.8925 chicken salad 0.0252
-1.2361 chicken sandwich -0.3002
-0.8925 chicken strips 0.0789
-2.0123 chicken that -0.1465
-2.0123 chicken with -0.1412
-2.0123 chicken wrap 0.9336
-0.6621 chili </s> 2.9332
-1.4383 chili combo 0.1251
-1.4383 chili fine 0.0279
-1.4383 chili if 0.4152
-1.4383 chili or -0.1472
-1.4383 chili which -0.1058
-1.4383 chili white -0.0071
-0.9913 chili with -0.2971
-0.3591 chill </s> 3.1975
-0.3591 chills and -0.1482
-0.0375 chilly </s> 2.4056
-0.8362 chip </s> 3.1975
-0.3892 chip muffin 0.3700
-0.4434 chipotle </s> 2.1748
-1.5632 chipotle and -0.1482
-1.5632 chipotle barbecue 0.1007
-0.6795 chipotle chicken -0.2164
-1.5632 chipotle or -0.1437
-1.5632 chipotle sauce -0.1353
-1.5632 chipotle spicy -0.1330
-0.3591 chipotle's fine 0.0279
-0.6368 chocolate </s> 2.2674
-2.0751 chocolate and -0.1482
-1.6281 chocolate chip -0.1443
-2.0751 chocolate chunk 0.1007
-1.6281 chocolate cookies 0.1593
-1.6281 chocolate cream -0.2694
-2.0751 chocolate dear 1.0270
-1.2989 chocolate dip 0.0464
-2.0751 chocolate donut 0.0987
-2.0751 chocolate doughnut 0.1142
-1.6281 chocolate dream 0.0879
-1.2989 chocolate glazed 0.1590
-1.6281 chocolate juice -0.1056
-1.1913 chocolate latte 0.1177
-0.9553 chocolate milk -0.7811
-2.0751 chocolate mousse 0.1007
-2.0751 chocolate no -0.1462
-2.0751 chocolate peanut 0.1007
-2.0751 chocolate right 0.2902
-2.0751 chocolate sugar 0.5419
-2.0751 chocolate whipped 0.9336
-0.0375 choice </s> 2.4056
-0.3591 choose a -0.1465
-0.3591 chris </s> 3.1975
-0.3591 christmas </s> 3.1975
-0.3591 chunk cookie 0.0094
-0.6601 cinnamon french -0.1297
-0.6601 cinnamon roll 0.1007
-0.6601 classic bagel 0.1460
-0.6601 classic chicken -0.0896
-0.6601 club a -0.1482
-0.6601 club bagel 0.1460
-0.3693 coffee </s> 1.6745
-2.4005 coffee a -0.1482
-2.4005 coffee also 0.0787
-1.2807 coffee and -0.1762
-2.4005 coffee beans 0.1007
-2.4005 coffee black 0.2584
-2.4005 coffee but -0.0924
-1.9535 coffee double -0.1343
-2.4005 coffee for -0.0779
-1.9535 coffee how -0.0424
-2.4005 coffee iced 0.0571
-1.9535 coffee is -0.1321
-2.4005 coffee it -0.1257
-2.4005 coffee ma'am 0.6291
-2.4005 coffee on 0.0518
-1.9535 coffee one -0.0817
-1.6017 coffee please 0.5504
-1.9535 coffee promise 0.0392
-2.4005 coffee regular 0.0079
-1.1383 coffee sir -0.1549
-2.4005 coffee that's -0.0977
-2.4005 coffee today 0.6106
-1.0000 coffee two -0.7270
-1.0000 coffee with -0.1988
-2.4005 coffee you -0.1153
-0.3591 coffees or -0.1437
-0.3591 coke pepsi 0.0863
-0.3591 cold outside 0.3568
-0.3297 combo </s> 2.0041
-1.2324 combo is -0.2710
-1.2550 combo number -0.4355
-2.0312 combo or -0.1370
-2.0312 combo potato 1.0412
-1.2550 combo right 0.0260
-2.0312 combo seven -0.0808
-2.0312 combo sir 0.3325
-0.6721 combo with -0.2394
-0.8362 come in -0.0554
-0.3892 come with -0.2971
-1.0581 comes on -0.1391
-1.0581 comes to -0.1476
-0.2593 comes with -0.1028
-0.1249 coming </s> 2.3923
-1.4383 coming sir 0.3325
-0.9913 coming up 0.0879
-0.3591 complete your -0.0764
-0.3591 confused </s> 3.1975
-0.3591 confusion </s> 3.1975
-0.6601 container </s> 3.1975
-0.6601 container for -0.1475
-0.3591 cooked in -0.1462
-0.5146 cookie </s> 2.4056
-1.3134 cookie double -0.1312
-1.3134 cookie muffin 0.3133
-0.5371 cookie or -0.5375
-0.3610 cookies </s> 2.9332
-1.1373 cookies or -0.1472
-1.1373 cookies two -0.1452
-0.3591 cooler right -0.1147
-0.8362 correct </s> 3.1975
-0.3892 correct combo -0.3473
-0.0348 could you -0.3650
-0.3591 counters </s> 3.1975
-0.2132 coupon you -0.3383
-0.3867 cream </s> 1.7555
-1.2170 cream and -0.1485
-0.6767 cream cheese -0.5088
-2.3368 cream cheeses 0.1007
-2.3368 cream coffee 0.0930
-1.8898 cream donut -0.1243
-2.3368 cream for -0.0513
-2.3368 cream in -0.1411
-1.8898 cream milk 0.2495
-2.3368 cream on -0.1391
-1.0235 cream one -0.6768
-2.3368 cream only -0.1166
-2.3368 cream or -0.1233
-2.3368 cream right 0.2902
-2.3368 cream sir 0.3325
-2.3368 cream the -0.1461
-2.3368 cream three -0.1005
-2.3368 cream two -0.1162
-2.3368 cream with -0.1454
-2.3368 cream yeah -0.1143
-1.5381 cream yes -0.7254
-0.6601 creams </s> 3.1975
-0.6601 creams small -0.1170
-0.9612 creamy cheese 0.2363
-0.9612 creamy chocolate -0.1387
-0.5142 creamy soup 0.2647
-0.9612 credit card 0.1655
-0.9612 credit go -0.0215
-0.9612 credit in -0.1462
-0.9612 credit sure 0.3207
-1.5352 crispy </s> 3.1975
-0.1347 crispy chicken -0.2678
-1.0882 crispy or -0.1321
-1.5352 crispy sandwich -0.1404
-0.0726 croissant </s> 2.3052
-1.4731 croissant and -0.1373
-1.4731 croissant no -0.1462
-0.9612 croissants </s> 3.1975
-0.9612 croissants are -0.1469
-0.9612 croissants for -0.1475
-0.9612 croissants right -0.1147
-0.3591 crying </s> 3.1975
-1.3134 cup </s> 3.1975
-0.5146 cup of -0.2655
-0.5371 cup ok -0.1464
-1.3134 cup right 0.2902
-0.3591 cut myself 0.1007
-0.6601 danielle </s> 3.1975
-0.6601 danielle they're -0.1162
-0.6601 danish </s> 3.1975
-0.6601 danish maple 0.0992
-0.6601 danishes </s> 3.1975
-0.6601 danishes absolutely 0.3568
-0.0174 dark roast 0.1062
-0.3591 david </s> 3.1975
-0.1027 day </s> 1.8694
-1.9389 day bye 0.0152
-1.9389 day david 0.1007
-1.4919 day gets 0.0392
-1.4919 day going -0.0911
-1.9389 day guys -0.0304
-1.9389 day ma'am 0.6291
-0.3591 days or -0.1472
-0.0300 dear </s> 2.2004
-0.3892 debit </s> 2.9745
-0.8362 debit go -0.0215
-0.1624 decaf </s> 2.4056
-0.9612 decaf with -0.1244
-0.2132 deep tea -0.3510
-0.3591 delight </s> 3.1975
-0.3591 denise will -0.1429
-1.5052 did this -0.0935
-0.0322 did you -1.2129
-0.6601 didn't charge 0.1007
-0.6601 didn't have -0.1476
-0.2132 diet pepsi 0.1292
-0.3591 different i -0.1422
-0.0916 dine in -0.0295
-0.0152 dining in -0.2187
-0.5146 dip </s> 2.4056
-1.3134 dip and -0.1466
-1.3134 dip chocolate -0.1267
-1.3134 dip donut 0.0987
-0.8664 dip doughnut -0.1089
-1.3134 dip in -0.0554
-0.0348 dipping sauce 0.0445
-0.3591 discontinued the -0.1461
-0.3591 dismay </s> 3.1975
-1.9612 do for -0.0779
-1.9612 do have -0.1398
-1.9612 do is -0.1472
-1.9612 do not -0.1370
-1.5142 do that 0.1654
-1.9612 do what -0.1111
-0.0835 do you -0.5919
-0.3591 does it -0.1473
-0.4054 doesn't come 0.0661
-1.2042 doesn't have -0.1476
-1.2042 doesn't matter -0.0419
-0.7572 doesn't work 0.0006
-1.0581 doing </s> 3.1975
-1.0581 doing accounting 0.1007
-1.0581 doing dining 1.3133
-1.0581 doing good -0.1469
-1.0581 doing in -0.1462
-0.6215 dollar </s> 2.8930
-1.0582 dollar and -0.1345
-1.5052 dollar eighty -0.0071
-0.7290 dollar fifty 0.2206
-1.5052 dollar ninety -0.0594
-1.5052 dollar twenty 0.2084
-0.7270 dollars </s> 2.2674
-0.5274 dollars and -0.2738
-1.2815 dollars eighty -0.0563
-2.1653 dollars even -0.0806
-1.7183 dollars exact 0.0392
-2.1653 dollars fifteen -0.1274
-1.2815 dollars fifty 0.4781
-2.1653 dollars five 0.2016
-2.1653 dollars forty -0.0240
-1.3891 dollars ninety -0.0140
-1.3665 dollars please 0.5504
-2.1653 dollars seventy -0.0540
-1.3665 dollars sixty -0.0635
-2.1653 dollars so -0.1259
-1.7183 dollars ten 0.0046
-1.7183 dollars thirty 0.3568
-2.1653 dollars twenty -0.1189
-1.0774 don't carry 0.0478
-0.3468 don't have -0.1746
-1.5142 don't know -0.2428
-1.9612 don't listen 0.2622
-1.9612 don't need 0.0157
-1.5142 don't see -0.3375
-1.1849 don't want -0.0209
-1.0774 don't worry 0.0664
-1.5142 don't you -0.3678
-0.6601 done </s> 3.1975
-0.6601 done or -0.1376
-0.3617 donut </s> 2.3465
-1.7208 donut boston 0.9336
-1.2738 donut cookie 0.0307
-1.7208 donut glazed -0.1247
-1.7208 donut or -0.1472
-1.7208 donut sir 0.3325
-1.7208 donut today 0.6106
-1.2738 donut we 0.4619
-1.7208 donut what -0.1111
-1.2738 donut with -0.1076
-1.7208 donut would 0.9649
-0.3257 donuts </s> 2.3326
-1.4383 donuts and -0.1371
-1.4383 donuts do 0.6079
-1.4383 donuts no -0.1411
-1.4383 donuts or -0.1233
-1.4383 donuts right 0.2902
-0.5389 double </s> 1.9663
-1.8312 double and -0.1250
-1.3944 double chocolate -0.1850
-2.2782 double coffee 0.0930
-1.8312 double cream 0.0839
-2.2782 double cup -0.1274
-0.3750 double double -0.5930
-2.2782 double expresso 0.1007
-2.2782 double right 0.2902
-1.8312 double sir 0.1095
-1.8312 double sugar 0.3189
-1.8312 double toasted -0.0840
-1.3944 double with -0.2261
-0.3424 doughnut </s> 2.3465
-1.7015 doughnut a -0.1465
-1.7015 doughnut cookie -0.0001
-1.7015 doughnut do 0.6079
-1.7015 doughnut for -0.0779
-1.7015 doughnut one -0.1478
-0.8178 doughnut or -0.4173
-1.7015 doughnut strudel 0.1106
-1.7015 doughnut with -0.1318
-0.2818 doughnuts </s> 2.9332
-1.0581 doughnuts with -0.1318
-0.8362 down now 0.2363
-0.8362 down over 0.2391
-0.8362 down there 0.0850
-0.1624 dozen donuts 0.1932
-0.9612 dozen ok 0.1178
-0.1849 dream latte 0.2940
-0.2024 drink </s> 1.8414
-2.0667 drink and -0.1482
-2.0667 drink for -0.1189
-2.0667 drink it 0.0331
-2.0667 drink like -0.1025
-1.2679 drink sir -0.4594
-2.0667 drink to -0.1030
-1.2679 drink today 0.4997
-1.2904 drink with -0.3157
-1.6197 drink would 0.7419
-1.6197 drink yeah 0.0440
-0.3385 drinks </s> 2.4056
-1.1373 drinks ready 0.2240
-1.1373 drinks to -0.1104
-1.1373 drinks with -0.1116
-0.2818 each </s> 2.9332
-1.0581 each right 0.2902
-0.9612 eat in -0.0864
-0.5142 eat it -0.1899
-0.9612 eat today 0.6106
-0.2132 eating in 0.1585
-0.3591 ed six -0.0848
-1.2042 egg </s> 3.1975
-0.3204 egg and -0.4466
-1.2042 egg or -0.1472
-0.6215 eight </s> 2.8930
-0.7290 eight dollars -0.1421
-1.0582 eight fifteen 0.0307
-1.5052 eight five 0.2016
-1.5052 eight forty -0.0978
-1.5052 eight thirty -0.1247
-0.3591 eighteen sir 0.3325
-0.9913 eighty </s> 2.9745
-0.5545 eighty five 0.2010
-1.4383 eighty one -0.0850
-0.6621 eighty please 1.0781
-1.2042 eleven and -0.1482
-0.4054 eleven dollars 0.0420
-1.2042 eleven eighty -0.0071
-1.2042 eleven forty -0.1315
-1.2042 eleven o'clock -0.0419
-0.7058 else </s> 2.8930
-1.5896 else for -0.1189
-0.1891 else sir -0.5598
-0.3591 em excuse 0.8923
-0.1624 end </s> 2.4056
-0.9612 end please 1.3423
-0.3591 england ok 0.1178
-0.1624 english muffin -0.4786
-0.9612 english muffins 0.0787
-0.8614 enjoy </s> 2.4056
-1.6601 enjoy it 0.0331
-1.6601 enjoy mrs 0.2622
-0.3979 enjoy sir -0.2764
-1.6601 enjoy the -0.1461
-1.6601 enjoy you -0.0759
-0.7764 enjoy your -0.0859
-0.3591 enough balance 0.3316
-0.9612 espresso is -0.1472
-0.1624 espresso shot 0.1417
-0.3591 eva </s> 3.1975
-0.8362 even i -0.1459
-0.8362 even please 1.3423
-0.8362 even sat 0.1007
-0.0375 evening </s> 2.4056
-0.3591 every bagel 0.1460
-0.7780 everything </s> 2.3326
-0.5772 everything bagel 0.1860
-1.8906 everything correct -0.0806
-1.1144 everything for -0.4725
-1.8906 everything is -0.1437
-1.4436 everything needs 0.1007
-1.8906 everything ok 0.1178
-1.4436 everything out -0.0400
-1.8906 everything plain -0.1079
-1.8906 everything right 0.2902
-1.8906 everything sir 0.3325
-1.8906 everything to -0.1296
-1.8906 everything today 0.6106
-1.8906 everything works 0.8509
-1.8906 everything yeah -0.0052
-0.2132 exact </s> 2.9745
-0.3591 exactly he -0.0806
-0.0414 excuse me -0.3026
-0.3591 experience </s> 3.1975
-0.3591 expresso and -0.1373
-0.3784 extra </s> 2.8930
-1.2622 extra large -0.0789
-1.2622 extra one -0.0850
-1.2622 extra strawberry 0.0992
-0.3591 face </s> 3.1975
-0.3591 far </s> 3.1975
-0.6601 farmer's sausage -0.0001
-0.6601 farmer's wrap 0.9336
-0.3591 fathers day 0.5276
-0.3591 fault </s> 3.1975
-0.3591 feature donut -0.1407
-0.3591 feel it 0.0331
-0.3591 few minutes -0.0419
-0.5371 fifteen </s> 2.9332
-0.8664 fifteen cents 0.3296
-1.3134 fifteen please 1.3423
-1.3134 fifteen ten -0.0695
-1.3134 fifteen thank 1.7142
-0.3485 fifty </s> 2.2326
-1.0453 fifty cents 0.3560
-1.8215 fifty eight -0.0304
-0.7089 fifty five 0.2678
-1.8215 fifty please 1.3423
-1.8215 fifty sir 0.3325
-1.8215 fifty today 0.6106
-1.8215 fifty two -0.1307
-0.4753 fine </s> 2.8930
-1.3591 fine ok 0.1178
-0.9121 fine sir 0.1095
-1.3591 fine thank 1.7142
-1.3591 fine with -0.0741
-0.3591 finishing </s> 3.1975
-0.8362 first </s> 3.1975
-0.8362 first one's 0.1007
-0.8362 first time -0.0988
-0.7901 five </s> 2.2674
-0.2564 five cents -0.0627
-2.2283 five days 0.1007
-1.1085 five dollars 0.1601
-2.2283 five if 0.4152
-2.2283 five medium -0.1306
-1.3446 five please 1.0378
-1.4296 five sir -0.4594
-2.2283 five thirty 0.0340
-2.2283 five timbits 0.1286
-2.2283 five twenty 0.2084
-2.2283 five with -0.1478
-0.2132 fix that -0.3563
-0.2132 follow up 0.0879
-0.1249 food </s> 2.3923
-0.9913 food is -0.3600
-1.4383 food will 0.0201
-1.3148 for a -0.3542
-1.1213 for coming -0.4328
-1.6359 for dine -0.2200
-1.9877 for dining 1.0903
-2.4347 for dismay 0.1007
-2.4347 for five 0.2016
-2.4347 for hash 0.0096
-1.3220 for here -0.4833
-2.4347 for him 0.0096
-2.4347 for it 0.0331
-2.4347 for jared 0.1007
-2.4347 for now 0.2363
-1.6584 for only -0.3408
-1.6584 for that -0.1298
-0.9964 for the -0.8661
-2.4347 for this -0.0935
-2.4347 for three -0.1417
-2.4347 for to -0.1104
-1.1725 for today 0.0232
-1.0755 for twenty -0.7195
-1.9877 for waiting 0.1007
-0.8203 for you -0.5082
-0.6953 for your -0.7151
-0.8362 forgot </s> 3.1975
-0.3892 forgot to -0.0868
-1.4005 forty </s> 3.1975
-0.6017 forty cents -0.5108
-1.4005 forty eight -0.0304
-0.6017 forty five 0.1127
-0.9535 forty four -0.1083
-1.4005 forty three -0.1417
-0.6601 forty-five change 0.0997
-0.6601 forty-five is -0.0064
-1.1144 four </s> 2.9332
-1.8906 four and -0.1371
-1.4436 four bagels -0.0911
-0.6284 four cheese 0.1176
-1.4436 four cream -0.0439
-1.8906 four dollar -0.1353
-1.1144 four dollars -0.3930
-1.8906 four eighty -0.1023
-1.8906 four forty -0.1315
-1.8906 four in -0.0554
-1.8906 four ninety -0.1353
-1.8906 four ok 0.1178
-1.0918 four plain -0.2645
-1.8906 four sugars 0.8923
-1.8906 four ten -0.0883
-1.8906 four today 0.6106
-1.8906 four twenty -0.1444
-0.3591 fourteen </s> 3.1975
-0.2132 free hot -0.2688
-0.5604 french onion -0.0513
-1.3591 french toast -0.1093
-0.2393 french vanilla 0.0765
-0.8664 fresh </s> 2.9745
-1.3134 fresh honey -0.1093
-1.3134 fresh onions 0.2622
-1.3134 fresh panini 0.0992
-0.8664 fresh steeped 0.5821
-1.3134 fresh vanilla -0.1274
-1.3134 fresh wedges 0.3410
-0.3591 freshly grounded 0.1007
-0.3591 friday </s> 3.1975
-0.3591 friend </s> 3.1975
-0.3591 fries </s> 3.1975
-0.5142 fritter </s> 2.9745
-0.9612 fritter chocolate -0.1387
-0.9612 fritter or -0.1437
-0.6601 from here -0.1233
-0.6601 from the -0.1480
-0.2132 front </s> 2.9745
-0.3591 garbage </s> 3.1975
-0.6601 garlic bagel -0.0782
-0.6601 garlic cream -0.0464
-0.6601 gave him -0.0988
-0.6601 gave you -0.1482
-1.6813 get </s> 3.1975
-0.5615 get a -1.1544
-1.2343 get for -0.3009
-1.2343 get iced -0.0153
-1.6813 get it 0.0331
-1.6813 get receipt 0.1007
-1.6813 get started 0.1007
-1.6813 get two -0.1452
-1.6813 get you -0.0759
-0.7976 get your -0.3898
-0.2132 gets better 0.0392
-0.2132 getting your -0.0531
-0.3591 ginger ale 0.1007
-0.3522 give me -0.4229
-0.3900 give you -0.2733
-1.0142 give your -0.3816
-0.3591 glass of -0.1101
-0.4634 glazed </s> 2.4056
-1.2622 glazed and -0.1482
-1.2622 glazed donut 0.0987
-1.2622 glazed doughnut 0.1142
-1.2622 glazed honey -0.0594
-1.2622 glazed or -0.1472
-0.6612 go </s> 2.2674
-2.0995 go a -0.1482
-0.5942 go ahead 0.3282
-2.0995 go and -0.1302
-2.0995 go angelo 0.2622
-2.0995 go around 0.1007
-2.0995 go awesome 0.2240
-2.0995 go dear 1.0270
-2.0995 go get -0.1399
-2.0995 go grant 0.1007
-2.0995 go hea 0.1007
-1.2157 go head -0.0377
-2.0995 go hon 0.1007
-2.0995 go jim 0.1007
-2.0995 go ma'am 0.6291
-2.0995 go my 0.6960
-2.0995 go regular 0.0079
-2.0995 go right -0.1447
-1.3007 go sir 0.2001
-0.9796 go with -0.2403
-1.2042 going </s> 3.1975
-1.2042 going so -0.1455
-0.4280 going to -0.2318
-1.2042 going today 0.6106
-1.0581 gonna call 0.0787
-1.0581 gonna make -0.1362
-1.0581 gonna say -0.0806
-1.0581 gonna tell -0.0419
-1.0581 gonna wait 0.0096
-0.6892 good </s> 2.0913
-0.7984 good afternoon 0.0765
-2.3036 good buddy 0.1007
-1.8566 good choice 0.7106
-0.6021 good day -0.4635
-2.3036 good evening 0.9336
-2.3036 good for -0.0779
-2.3036 good friday 0.1007
-1.5274 good good 0.0982
-2.3036 good i -0.1459
-1.1838 good morning -0.1135
-2.3036 good night 0.1007
-1.8566 good one -0.3080
-2.3036 good pastry 0.1007
-1.5274 good sir 0.0682
-2.3036 good sure 0.3207
-1.5274 good thank 1.4500
-2.3036 good thanks -0.0271
-2.3036 good thing 0.1007
-2.3036 good weekend 0.1720
-2.3036 good what -0.1443
-0.6601 good-bye </s> 3.1975
-0.6601 good-bye sir 0.3325
-0.3591 goodbye </s> 3.1975
-0.9612 got a -0.1090
-0.5142 got it 0.0358
-0.9612 got to -0.1402
-0.8362 grab a -0.1205
-0.8362 grab that 0.1345
-0.8362 grab this -0.1234
-0.3591 grant </s> 3.1975
-1.2622 great choice 0.9336
-1.2622 great christmas 0.1007
-0.4634 great day 0.5779
-1.2622 great new -0.0500
-1.2622 great thank 1.7142
-1.2622 great weekend 0.1720
-0.9121 greek cheese -0.3493
-0.0969 greek salad 0.2926
-0.8362 green </s> 3.1975
-0.3892 green tea -0.0467
-0.6903 grilled </s> 2.9745
-0.3610 grilled cheese 0.2071
-0.3591 grounded coffee -0.1474
-0.2132 guess </s> 2.9745
-0.2132 guest </s> 2.9745
-0.6215 guys </s> 2.8930
-1.5052 guys are -0.1353
-1.5052 guys because -0.0988
-1.5052 guys from -0.0419
-1.5052 guys grab -0.0806
-1.5052 guys having 0.1007
-1.5052 guys spying 0.1007
-1.5052 guys take -0.0794
-1.0582 guys want -0.2814
-0.3591 ha it's -0.1393
-1.3591 half </s> 3.1975
-0.9121 half a -0.1455
-1.3591 half bagel -0.1417
-1.3591 half coffee -0.1257
-0.9121 half dozen 0.1338
-1.3591 half steeped 0.8052
-1.3591 half sugar 0.5419
-1.3591 half the -0.1480
-0.1624 ham and -0.9356
-0.9612 ham cheddar -0.1211
-1.1373 happy camp 0.1007
-1.1373 happy canada 0.1007
-1.1373 happy fathers 0.1007
-1.1373 happy good -0.1469
-1.1373 happy mothers 0.1007
-1.1373 happy new -0.0500
-0.2132 harrison </s> 2.9745
-0.3591 has a -0.1435
-0.5142 hash brown -0.0419
-0.5142 hash browns 0.1007
-0.4054 hashbrown </s> 2.4056
-1.2042 hashbrown and -0.1371
-0.7572 hashbrown for -0.3625
-1.2042 hashbrown with -0.1116
-0.3892 hashbrowns </s> 2.9745
-0.8362 hashbrowns are -0.1469
-0.3591 hasn't been -0.0806
-1.6743 have </s> 2.4056
-0.4418 have a -0.5992
-2.4731 have an -0.1211
-1.6743 have any -0.0651
-2.4731 have at 0.4530
-2.4731 have big -0.1093
-2.4731 have chicken -0.0896
-1.6743 have cream -0.8383
-2.4731 have croissants -0.0988
-2.4731 have diet 0.2622
-2.0261 have english 0.5442
-2.4731 have enough 0.1007
-2.0261 have everything -0.0079
-2.4731 have fourteen 0.1007
-2.4731 have french -0.0093
-2.4731 have greek 0.5499
-2.4731 have hash 0.0096
-2.4731 have iced -0.1362
-1.6743 have it 0.0385
-2.0261 have jalapeno 0.0594
-2.0261 have large -0.3394
-2.4731 have latte -0.1404
-2.4731 have maple -0.0500
-2.4731 have medium -0.1410
-2.4731 have mexican 0.1981
-2.4731 have nine -0.1211
-2.4731 have one -0.1478
-2.0261 have only -0.3396
-2.4731 have or -0.1437
-2.0261 have plain 0.0657
-2.4731 have potato 1.0412
-2.4731 have pumpkin 0.3109
-2.4731 have regular -0.1390
-2.4731 have sesame -0.0806
-2.4731 have strudels -0.0988
-2.4731 have tea -0.1456
-2.4731 have ten -0.0695
-1.6743 have that 0.0042
-1.3604 have the -0.1881
-2.4731 have them -0.0806
-2.4731 have three -0.1417
-2.4731 have to -0.1476
-2.4731 have two -0.1452
-2.4731 have united 0.2622
-0.8587 have your -0.8496
-0.9612 haven't croissants -0.0988
-0.5142 haven't even 0.0006
-0.9612 haven't seen 0.1007
-0.3591 having a -0.1465
-0.8362 he already -0.0806
-0.8362 he remembers 0.1007
-0.8362 he said -0.1093
-0.3591 he's gonna -0.1093
-0.3591 hea </s> 3.1975
-0.3610 head </s> 2.9332
-1.1373 head go -0.1218
-1.1373 head sir 0.3325
-0.6601 headsets </s> 3.1975
-0.6601 headsets two -0.1452
-0.3591 hear that 0.1345
-0.3591 heated </s> 3.1975
-1.5653 hello </s> 2.9745
-2.0123 hello how 0.1794
-0.7501 hello madam -0.1468
-0.1217 hello sir -0.8632
-0.9808 help someone 0.0767
-0.0757 help you -0.8364
-0.2132 henry </s> 2.9745
-0.6601 her </s> 3.1975
-0.6601 her to -0.1476
-0.4847 here </s> 2.0678
-2.1225 here and -0.1466
-2.1225 here eva 0.1007
-2.1225 here for -0.1475
-2.1225 here go -0.0422
-0.6495 here is -0.7548
-2.1225 here one -0.0750
-1.2388 here or -0.3499
-2.1225 here sir 0.3325
-2.1225 here we -0.1452
-0.6173 here you -0.9245
-0.3892 here's the -0.1451
-0.8362 here's your -0.0897
-0.8362 hey </s> 3.1975
-0.3892 hey how -0.0436
-0.8697 hi </s> 2.3326
-1.5354 hi can -0.1249
-1.9824 hi dear 1.0270
-0.5093 hi good -0.6280
-1.2061 hi hi 0.0007
-1.2061 hi how -0.0848
-1.9824 hi i -0.1111
-1.9824 hi large -0.0789
-1.9824 hi ma'am 0.6291
-1.9824 hi ok 0.1178
-1.2061 hi sir 0.2464
-1.9824 hi there 0.0850
-1.5354 hi yeah -0.2282
-0.5142 him </s> 2.9745
-0.9612 him a -0.1368
-0.9612 him anywhere 0.1007
-0.3591 hoh </s> 3.1975
-0.6601 hold it 0.0331
-0.6601 hold this -0.0935
-0.2132 home_style biscuit 0.1041
-0.3591 hon </s> 3.1975
-1.0582 honey </s> 2.9745
-1.5052 honey cooler 0.1007
-0.7290 honey dip 0.1118
-1.0582 honey doughnut 0.1303
-0.6215 honey mustard -0.0515
-0.3591 honey_dipped timbits 0.1286
-0.3892 hope to -0.3627
-0.8362 hope your -0.1441
-0.3591 hopefully your -0.1441
-1.0261 hot </s> 2.9745
-0.6743 hot beverage -0.4351
-0.5893 hot chocolate -0.3293
-1.0261 hot outside 0.1338
-1.4731 hot tea 0.1763
-0.4634 hour </s> 2.4056
-0.8152 hour late 0.0392
-0.4634 hour ok -0.6741
-0.3610 house </s> 2.9332
-0.6903 house today 0.6350
-2.3503 how about -0.1093
-0.2752 how are -0.9756
-1.5741 how can -0.1662
-1.4666 how do 0.3034
-1.2377 how is -0.1392
-1.5516 how long -0.0589
-1.5516 how many 0.1007
-2.3503 how to -0.1296
-2.3503 how will -0.1429
-2.3503 how with -0.1478
-0.7360 how would -0.1413
-1.9033 how you -0.1008
-0.8362 how's it -0.1473
-0.3892 how's your -0.1119
-0.3591 hundred dollars -0.0589
-1.1088 i am -0.2032
-2.5818 i apologize 0.1007
-2.5818 i bring -0.0962
-1.0766 i can -0.2259
-2.5818 i cut 0.1007
-2.5818 i didn't -0.0419
-2.5818 i doing -0.1093
-1.8056 i don't -0.3447
-2.1348 i forgot 0.2015
-2.1348 i gave 0.1007
-1.0466 i get 0.0405
-1.1088 i give -0.6205
-2.5818 i got -0.0988
-2.1348 i guess 0.0392
-0.7914 i have -0.2739
-2.1348 i haven't -0.2134
-0.8610 i help -0.1770
-2.1348 i hope 0.2015
-1.8056 i just -0.2338
-2.1348 i know -0.2428
-1.4692 i need -0.2595
-2.1348 i owe 0.0392
-2.5818 i put -0.1162
-2.5818 i see -0.0671
-2.5818 i show 0.2622
-2.5818 i struggle 0.1007
-1.7831 i think 0.1007
-2.1348 i want -0.2814
-2.5818 i was -0.0988
-0.9923 i will -0.3354
-1.5632 i'll add -0.0811
-1.5632 i'll be -0.1420
-0.7870 i'll bring 0.0537
-1.5632 i'll go -0.1456
-1.5632 i'll grab -0.0806
-1.5632 i'll have -0.1476
-1.5632 i'll just -0.1465
-1.5632 i'll keep 0.1007
-1.5632 i'll see -0.1370
-1.5632 i'll switch 0.1007
-1.1162 i'll take -0.3506
-1.5632 i'll timbits -0.1330
-1.6379 i'm a -0.1435
-1.6379 i'm confused 0.1007
-1.6379 i'm doing -0.1093
-1.6379 i'm fine -0.0924
-1.6379 i'm finishing 0.1007
-1.1909 i'm going -0.1692
-0.8391 i'm good -0.1685
-1.6379 i'm great -0.1247
-1.6379 i'm not -0.1370
-1.1909 i'm really -0.0419
-1.1909 i'm secretly 0.0392
-1.6379 i'm so -0.1271
-1.1909 i'm sorry 0.0079
-1.1373 ice </s> 3.1975
-1.1373 ice ok -0.1415
-0.6903 ice tea 0.1837
-0.6903 ice water 0.4200
-0.7364 iced cap 0.1740
-1.5352 iced capp 0.1007
-1.0882 iced cappuccino 0.0574
-1.5352 iced cappuccinos 0.1007
-0.4226 iced coffee 0.0526
-1.5352 iced tea 0.1763
-1.4005 if </s> 3.1975
-1.4005 if i -0.1139
-1.4005 if there 0.0270
-0.1383 if you -0.1530
-0.8718 in </s> 2.3923
-1.7382 in box 0.0879
-2.1852 in cash 0.2622
-2.1852 in combo -0.1450
-2.1852 in here -0.1233
-1.7382 in it 0.0358
-2.1852 in like -0.1366
-2.1852 in line 0.1007
-2.1852 in ok 0.1178
-0.4281 in or -1.2136
-2.1852 in school 0.1007
-2.1852 in sure 0.3207
-2.1852 in ten -0.0695
-2.1852 in that -0.1417
-0.7121 in the -0.2083
-2.1852 in two -0.1477
-1.7382 in with -0.3638
-1.3864 in your -0.8816
-0.3591 insert your -0.1467
-0.6601 inside is -0.1472
-0.6601 inside sir 0.3325
-0.2132 instead of -0.1120
-2.3591 is </s> 3.1975
-1.5829 is a -0.1170
-2.3591 is almost -0.0988
-2.3591 is anything -0.1407
-2.3591 is bagel -0.1333
-2.3591 is cooked 0.1007
-2.3591 is cream 0.0805
-2.3591 is double 0.0888
-2.3591 is eight -0.0594
-1.5604 is everything -0.0562
-2.3591 is five -0.1139
-1.9121 is for -0.3509
-2.3591 is garbage 0.1007
-1.9121 is good -0.2727
-2.3591 is in -0.0554
-1.0458 is it 0.1012
-2.3591 is just -0.1465
-2.3591 is like -0.1475
-2.3591 is made -0.0419
-1.9121 is ok -0.1052
-1.5829 is on -0.2124
-2.3591 is one -0.1395
-1.9121 is only -0.3396
-1.5604 is over 0.4923
-2.3591 is regular -0.1390
-2.3591 is seven 0.0665
-2.3591 is something -0.1093
-2.3591 is ten -0.0695
-1.4753 is that 0.0737
-1.9121 is the -0.1417
-1.9121 is this -0.1411
-2.3591 is today 0.6106
-1.9121 is twenty -0.0146
-2.3591 is two -0.1403
-2.3591 is united 0.2622
-1.5604 is very -0.1667
-2.3591 is wiping 0.1007
-1.5604 is with -0.9233
-2.3591 is you -0.1488
-0.5528 is your -0.0779
-0.3591 isn't working 0.1007
-0.4652 it </s> 1.7783
-1.0334 it a -0.9645
-1.5938 it again 0.1307
-2.3925 it all -0.1378
-2.3925 it and -0.1437
-2.3925 it back 0.1981
-2.3925 it banana 0.1007
-2.3925 it becomes 0.1007
-2.3925 it big -0.1093
-2.3925 it by 0.1007
-1.9455 it combo -0.0979
-1.5088 it comes 0.1084
-2.3925 it coming -0.1023
-2.3925 it dear 1.0270
-1.9455 it doesn't -0.2886
-2.3925 it everything -0.0155
-2.3925 it farmer's -0.0419
-2.3925 it five -0.1465
-1.9455 it for -0.0760
-2.3925 it going -0.1211
-2.3925 it inside -0.0419
-1.2799 it is -0.4030
-2.3925 it matter -0.0419
-2.3925 it ok -0.1457
-1.6163 it on 0.1122
-1.5938 it over -0.1055
-2.3925 it ready -0.0924
-1.9455 it should 0.1338
-2.3925 it sir 0.3325
-1.9455 it spicy -0.0149
-2.3925 it thank 1.7142
-2.3925 it there 0.0850
-2.3925 it to -0.1377
-1.5938 it toasted 0.0150
-2.3925 it will 0.0201
-1.5938 it works 0.9654
-2.3925 it would -0.1275
-0.9796 it's a -0.0561
-1.6525 it's all -0.1261
-2.0995 it's almost -0.0988
-2.0995 it's been -0.0806
-2.0995 it's black 0.2584
-1.6525 it's combo 0.1327
-2.0995 it's everything -0.0155
-0.9868 it's for -0.4984
-2.0995 it's fresh -0.0856
-2.0995 it's going 0.0538
-2.0995 it's good -0.0497
-2.0995 it's ham 0.3568
-2.0995 it's hot -0.1061
-2.0995 it's medium -0.1315
-2.0995 it's multi_grain 0.2622
-2.0995 it's my 0.6960
-2.0995 it's nine -0.1211
-1.6525 it's not -0.1247
-0.9796 it's ok -0.1034
-2.0995 it's okay -0.0806
-1.6525 it's on -0.1175
-2.0995 it's one -0.1478
-2.0995 it's out -0.1229
-2.0995 it's perfect 0.0678
-2.0995 it's really -0.0988
-2.0995 it's right -0.1447
-2.0995 it's the -0.1424
-2.0995 it's thirteen 0.1007
-2.0995 it's tim 1.2561
-1.3232 it's twenty 0.1531
-2.0995 it's two -0.0987
-2.0995 it's with -0.1478
-1.2622 jalapeno </s> 3.1975
-0.4860 jalapeno bagel 0.0591
-1.2622 jalapeno butter 0.2611
-1.2622 jalapeno jalapeno -0.1247
-1.2622 jalapeno toasted 0.0907
-0.3591 jared is -0.1081
-0.3591 jim </s> 3.1975
-0.3591 john how 0.1794
-0.3385 juice </s> 2.4056
-1.1373 juice and -0.1373
-1.1373 juice bottle -0.0001
-1.1373 juice chocolate -0.0981
-1.4237 just </s> 2.4056
-0.9091 just a -0.2745
-2.2224 just chocolate -0.0351
-2.2224 just cream 0.0805
-2.2224 just croissant -0.1342
-2.2224 just did -0.1353
-2.2224 just do -0.1356
-1.7754 just get 0.0980
-1.7754 just give -0.1168
-2.2224 just half -0.0924
-1.7754 just have -0.1772
-2.2224 just heated 0.1007
-2.2224 just hold -0.0419
-2.2224 just leave 0.1007
-1.7754 just let 0.6886
-1.7754 just like -0.3596
-1.4237 just milk -0.5503
-2.2224 just need -0.0317
-0.6329 just one -0.2454
-2.2224 just plain -0.1345
-2.2224 just ran 0.1007
-2.2224 just said -0.1093
-2.2224 just sandwich 0.1142
-2.2224 just sandwiches 0.1007
-2.2224 just strawberry 0.0992
-1.4462 just sugar 0.2777
-2.2224 just ten -0.1395
-1.3387 just the -0.1190
-2.2224 just twenty -0.1444
-1.7754 just two -0.1147
-2.2224 just want -0.0737
-2.2224 just with -0.1116
-0.3591 keep it -0.1473
-0.3591 ketchup it -0.1441
-0.3591 kim </s> 3.1975
-0.1849 kind of -0.2040
-0.3591 kinds of -0.1442
-0.5893 know </s> 2.8930
-1.4731 know at 0.4530
-0.6743 know that -0.1412
-0.6968 know your -0.4083
-1.0551 large </s> 2.8930
-1.9389 large chili -0.1330
-1.1401 large chocolate -0.2293
-0.8263 large coffee -0.2437
-1.9389 large diet 0.2622
-0.8263 large double -0.7761
-1.9389 large or -0.1472
-1.4919 large regular 0.0501
-1.9389 large sandwich 0.1142
-1.4919 large size -0.0897
-1.9389 large small -0.1425
-1.9389 large triple 0.0227
-1.9389 large vanilla -0.0001
-1.9389 large white -0.1023
-1.1627 large with -0.3592
-0.2132 late </s> 2.9745
-0.6601 later </s> 3.1975
-0.6601 later yeah -0.0052
-0.1963 latte </s> 2.2004
-1.7015 latte black -0.0937
-1.7015 latte caramel 0.1007
-1.2545 latte chocolate 0.0028
-1.7015 latte small -0.1170
-1.7015 latte today 0.6106
-1.7015 latte with -0.1454
-1.7015 latte yeah -0.0052
-0.3591 least he -0.0806
-0.3591 leave that 0.1345
-0.6601 leek and -0.1466
-0.6601 leek mexican 0.1981
-0.6601 lemon ice -0.0500
-0.6601 lemon or -0.1472
-0.0395 let me -0.0877
-1.2738 let you -0.3700
-0.3591 lettuce no -0.1462
-0.3591 light ice -0.1162
-0.8678 like </s> 2.1424
-0.9927 like a -0.3402
-2.4310 like add -0.1202
-2.4310 like another -0.1093
-2.4310 like cheese -0.1453
-2.4310 like classic -0.0419
-2.4310 like crispy 0.4249
-2.4310 like for -0.1189
-2.4310 like french -0.0093
-2.4310 like glazed -0.1247
-2.4310 like hashbrown 0.0678
-1.9840 like in -0.0519
-1.9840 like it 0.0358
-1.6548 like large -0.3824
-2.4310 like muffin 0.3133
-1.6548 like plain -0.2068
-2.4310 like potato 1.0412
-2.4310 like ranch 0.1981
-2.4310 like sir 0.3325
-2.4310 like something -0.1093
-1.5472 like that -0.1592
-1.6322 like the -0.1202
-1.6322 like this -0.2243
-0.4921 like to -0.8304
-2.4310 like two -0.0987
-1.6322 like with -0.2429
-1.0305 like your -0.3042
-0.3591 line over 0.2391
-0.2132 listen to -0.1387
-0.2132 listening to -0.3632
-0.1849 little bit 0.1007
-0.3591 logan </s> 3.1975
-1.2042 long </s> 3.1975
-1.2042 long as -0.0988
-1.2042 long is -0.1081
-1.2042 long sorry -0.1205
-0.7572 long time -0.0419
-1.2042 long weekend 0.1720
-0.3591 loyal to -0.1476
-0.6601 lunch combo 0.1251
-0.6601 lunch menu 0.1007
-0.0792 ma'am </s> 2.1705
-1.6144 ma'am bag 0.2611
-1.6144 ma'am bye 0.0152
-1.6144 ma'am here 0.0233
-0.3591 machine isn't 0.1007
-0.5545 madam </s> 2.8930
-1.4383 madam can 0.0981
-0.6395 madam have -0.7461
-0.6395 madam how -0.6125
-0.6601 made of -0.1442
-0.6601 made the -0.1461
-0.7590 make a -0.5431
-0.1761 make it -1.0234
-1.5352 make you -0.1488
-0.3591 mam </s> 3.1975
-0.3591 mango right 0.2902
-0.8362 many </s> 3.1975
-0.8362 many four -0.1144
-0.8362 many timbits 0.1286
-0.6903 maple donut -0.3483
-0.3610 maple pecan 0.0767
-0.6601 matter </s> 3.1975
-0.6601 matter wherever 0.1007
-0.0322 may i -0.8055
-0.6601 maybe doughnut -0.1404
-0.6601 maybe enjoy -0.0848
-0.2818 mayo </s> 2.9332
-1.0581 mayo chipotle 0.0449
-0.6576 me </s> 2.3052
-2.0581 me a -0.1482
-0.9382 me bring -0.1456
-1.1743 me check -0.0623
-1.2593 me dark 0.4642
-2.0581 me fix 0.2622
-1.6111 me follow 0.0392
-1.1743 me just -0.2090
-2.0581 me know -0.0198
-1.6111 me ma'am 0.6975
-2.0581 me mam 0.1007
-1.2593 me one -0.2385
-1.6111 me prepare 1.0331
-1.6111 me see -0.3375
-1.2593 me sir 0.2054
-2.0581 me somewhat 0.1007
-2.0581 me you -0.1488
-0.2818 meal </s> 2.9332
-1.0581 meal one -0.1478
-0.3591 means she's -0.0988
-0.8653 medium </s> 2.3923
-1.7317 medium and -0.1440
-1.4024 medium black 0.2497
-1.3799 medium cappuccino -0.0779
-0.6435 medium coffee -0.1327
-2.1787 medium dark 1.2561
-1.3799 medium double -0.7031
-2.1787 medium drink -0.1453
-2.1787 medium green 0.0787
-1.3799 medium iced -0.0574
-2.1787 medium large -0.1441
-2.1787 medium latte 0.2902
-2.1787 medium mocha -0.0271
-2.1787 medium one -0.1228
-2.1787 medium or -0.1376
-2.1787 medium orange 0.1175
-2.1787 medium peppermint -0.0419
-1.7317 medium regular 0.0501
-2.1787 medium right 0.2902
-2.1787 medium small -0.1170
-1.2949 medium tea 0.1390
-2.1787 medium tripple -0.0419
-2.1787 medium two -0.0377
-1.0588 medium with -0.2887
-0.3591 medium_size as -0.0988
-0.3591 medium_sized today 0.6106
-0.3591 menu </s> 3.1975
-1.0581 mexican chilly 0.9336
-0.2593 mexican chipotle -0.0715
-1.0581 mexican soup 0.4877
-0.3591 mike </s> 3.1975
-0.2268 milk </s> 1.8025
-0.6569 milk and -0.3638
-2.1300 milk in -0.1411
-1.3312 milk one -0.1642
-2.1300 milk or -0.1437
-1.6830 milk right 0.0672
-2.1300 milk sugar 0.5419
-1.3312 milk two -0.1024
-0.2132 milks </s> 2.9745
-0.3591 mind </s> 3.1975
-0.3591 mints </s> 3.1975
-0.3892 minute </s> 2.9745
-0.8362 minute sir 0.3325
-0.6601 minutes and -0.1302
-0.6601 minutes sir 0.3325
-0.3591 mix </s> 3.1975
-0.6111 mocha </s> 2.9745
-1.0581 mocha bottle -0.0001
-0.6111 mocha latte 0.3147
-0.3385 moment </s> 2.4056
-0.3385 moment we -0.7132
-0.2132 money back -0.0656
-0.9612 more coffee 0.0930
-0.9612 more four -0.0326
-0.9612 more so -0.1271
-0.9612 more tomato 0.1720
-0.6514 morning </s> 2.8930
-1.5352 morning chris 0.1007
-0.7364 morning how -0.6125
-1.5352 morning john 0.1007
-1.5352 morning logan 0.1007
-1.0882 morning morning 0.0776
-1.5352 morning mrs 0.2622
-1.5352 morning sir 0.3325
-0.3591 most priced 0.1007
-0.3591 mothers day 0.5276
-0.3591 mousse </s> 3.1975
-0.3591 mozzarella </s> 3.1975
-0.2132 mrs smith 0.0392
-0.1624 much </s> 2.4056
-0.9612 much sugar -0.1456
-0.1836 muffin </s> 2.0678
-1.3745 muffin and -0.1412
-1.8215 muffin blueberry 0.1007
-1.8215 muffin doughnut 0.1142
-1.3745 muffin sir 0.1095
-1.0227 muffin to -0.8948
-1.8215 muffin with -0.1318
-0.3892 muffins </s> 2.9745
-0.8362 muffins to -0.1476
-0.2132 multi_grain </s> 2.9745
-0.3204 mustard </s> 2.8930
-1.2042 mustard mayo 0.1720
-1.2042 mustard sauce -0.1093
-1.5052 my fault 0.1007
-1.5052 my friend 0.1007
-0.0669 my pleasure 0.0107
-0.3591 myself </s> 3.1975
-0.6307 name </s> 2.3052
-2.0312 name dear 1.0270
-0.2571 name for -1.2585
-2.0312 name kim 0.1007
-2.0312 name name -0.0333
-2.0312 name on -0.1456
-1.1474 name please 1.0378
-2.0312 name sir -0.1481
-0.3591 napkin is -0.1472
-0.3591 near </s> 3.1975
-1.9389 need </s> 3.1975
-0.6255 need a -0.2216
-1.9389 need anything -0.1407
-1.9389 need combo 0.1251
-1.9389 need eight -0.1353
-1.9389 need instead 0.2622
-1.1401 need it -0.0860
-1.9389 need some -0.1093
-0.5006 need the -0.1558
-1.9389 need these -0.0806
-0.8191 need to -0.2945
-1.9389 need two -0.1307
-0.6601 needs forty -0.0978
-0.6601 needs twenty -0.1359
-0.3591 nervous but -0.1297
-0.3591 never mind 0.1007
-0.6903 new espresso 0.5442
-1.1373 new nutella 0.1007
-1.1373 new one -0.0850
-0.6903 new year 0.1007
-0.6601 next guest 0.2622
-0.6601 next to -0.1402
-0.3591 nice day 0.5276
-0.3591 night </s> 3.1975
-1.2042 nine </s> 3.1975
-1.2042 nine cents 0.2810
-0.7572 nine dollars -0.1111
-1.2042 nine eighteen 0.1007
-1.2042 nine fifty -0.1425
-1.2042 nine forty -0.1315
-0.3591 nineteen dollars 0.0039
-0.7290 ninety </s> 2.9332
-1.5052 ninety eight -0.0304
-0.7290 ninety five 0.3760
-1.5052 ninety nine -0.1211
-1.5052 ninety please 1.3423
-0.7065 ninety six 0.0662
-0.8718 no </s> 2.3923
-2.1852 no bacon -0.0769
-1.7382 no box 0.0879
-2.1852 no cappuccino -0.1297
-2.1852 no coffee 0.0930
-1.3864 no combo -0.6668
-2.1852 no croissant 0.6638
-2.1852 no eat 0.0096
-2.1852 no glazed 0.0340
-2.1852 no he -0.0806
-2.1852 no i -0.1479
-2.1852 no i'll -0.1370
-2.1852 no ice -0.1162
-1.3864 no it's -0.0861
-2.1852 no latte 0.2902
-0.8261 no no -0.2260
-2.1852 no not -0.1370
-2.1852 no ok 0.1178
-2.1852 no onion -0.0988
-1.3014 no problem 0.1084
-2.1852 no sandwich 0.1142
-2.1852 no sausage -0.0001
-2.1852 no see -0.0671
-2.1852 no sir -0.1481
-1.4089 no sweetener 0.5283
-2.1852 no swiss 0.9336
-2.1852 no tea 0.1763
-2.1852 no that's -0.1310
-2.1852 no this 0.0698
-2.1852 no today 0.6106
-2.1852 no tomato -0.1093
-2.1852 no tomatos 0.1007
-2.1852 no water 0.2981
-2.1852 no we 0.0787
-1.7382 no worries 0.1007
-1.7382 no yeah -0.0029
-0.5829 noodle </s> 2.9332
-1.3591 noodle potato -0.1316
-0.4753 noodle soup 0.3592
-0.3591 noodles mexican 0.1981
-0.7645 not </s> 2.4056
-1.5632 not carry -0.1162
-1.5632 not hot -0.1061
-1.5632 not much 0.3568
-1.5632 not my -0.1353
-1.1162 not ready 0.0009
-1.5632 not really -0.0988
-1.5632 not restricted 0.1007
-1.5632 not right -0.1147
-1.5632 not spicy -0.0360
-1.5632 not sure 0.3207
-1.5632 not that 0.1345
-1.5632 not yet 0.1007
-0.3892 nothing </s> 2.9745
-0.8362 nothing nothing 0.0787
-0.2304 now </s> 2.3465
-1.5896 now are 0.5913
-1.5896 now it -0.1257
-1.5896 now ok 0.1178
-1.5896 now they're -0.1162
-1.1426 now we 0.0529
-1.5896 now you -0.1153
-1.6379 number </s> 3.1975
-1.6379 number eight -0.0304
-1.1909 number five -0.0692
-0.8616 number four -0.0958
-1.6379 number no -0.1309
-1.6379 number one -0.0850
-0.8391 number seven -0.1882
-0.8391 number six -0.1128
-1.6379 number ten -0.0883
-1.6379 number to -0.1296
-1.6379 number two -0.1477
-0.3591 nutella donut -0.1407
-0.6601 o'clock now 0.2363
-0.6601 o'clock see -0.1370
-0.3591 oat meal -0.1093
-1.5032 of </s> 2.9745
-1.9502 of an -0.1211
-1.9502 of assorted 0.1007
-1.1514 of bagel 0.0159
-1.9502 of chocolate -0.0351
-1.9502 of confusion 0.1007
-1.9502 of cream -0.1471
-1.9502 of dipping 0.9649
-1.9502 of donut -0.1407
-1.9502 of each 0.1720
-1.9502 of freshly 0.1007
-1.5032 of ice -0.2730
-1.9502 of it 0.0331
-1.9502 of one -0.1478
-1.1514 of our -0.1436
-1.9502 of six 0.0079
-1.1514 of the -0.1421
-1.5032 of them 0.0006
-1.9502 of those -0.1211
-1.1739 of twenty -0.0558
-1.9502 of twenty-five 0.1007
-1.9502 of two -0.1307
-1.0664 of water 0.4585
-0.3591 off </s> 3.1975
-0.3591 often </s> 3.1975
-0.7364 oh double -0.7031
-0.4154 oh oh -0.9612
-0.4154 oh ok -1.1465
-0.3381 ok </s> 1.4832
-1.7617 ok and -0.1241
-2.5605 ok angelo 0.2622
-2.5605 ok awesome 0.2240
-2.5605 ok danielle -0.0419
-1.7617 ok don't -0.9030
-2.5605 ok eight -0.0594
-2.5605 ok four -0.1435
-2.1135 ok go -0.2445
-2.1135 ok good -0.0470
-2.5605 ok grilled -0.0500
-2.1135 ok i -0.0989
-2.5605 ok i'll -0.1370
-2.1135 ok if 0.4836
-2.5605 ok it's -0.1010
-2.1135 ok just -0.0686
-2.5605 ok let 0.9116
-2.5605 ok medium -0.1410
-1.2472 ok ok -0.1461
-2.5605 ok on 0.0518
-1.7617 ok one -0.2672
-2.1135 ok perfect -0.1552
-2.1135 ok please 1.1193
-1.7617 ok sir 0.3973
-2.5605 ok sorry 0.0013
-0.9973 ok sure -0.5629
-2.5605 ok that -0.1465
-2.5605 ok then -0.1247
-2.5605 ok this -0.1451
-1.7617 ok three -0.0390
-2.5605 ok twelve -0.1247
-2.5605 ok two -0.1058
-2.5605 ok we -0.1452
-2.5605 ok what -0.0815
-2.5605 ok would 0.9649
-2.5605 ok yeah -0.0052
-2.5605 ok yep 0.0340
-2.5605 ok yes 0.0665
-1.2472 ok you -0.3144
-0.3892 okay </s> 2.9745
-0.8362 okay i'll -0.1370
-1.1373 old-fashioned donuts 0.1286
-0.2535 old-fashioned plain -0.1450
-1.2927 on a -0.1429
-2.0915 on bagel 0.1460
-1.6445 on both -0.1443
-2.0915 on brown -0.0988
-2.0915 on card 0.1655
-2.0915 on each -0.1093
-2.0915 on english 0.3568
-1.6445 on it -0.1899
-2.0915 on order 0.1519
-0.7782 on that -0.0802
-0.4314 on the -0.3525
-1.2077 on this -0.2755
-2.0915 on what -0.1181
-2.0915 on which -0.0089
-1.6445 on white -0.3254
-1.6445 on whole 0.6279
-2.0915 on your -0.1381
-0.8625 one </s> 2.0243
-2.5438 one a -0.1482
-2.5438 one and -0.1437
-2.0968 one b_l_t 0.0718
-1.7676 one bag 0.2814
-2.5438 one box -0.1274
-2.5438 one breakfast -0.1274
-2.5438 one canadian 0.1007
-2.0968 one chicken -0.2629
-2.5438 one chili -0.0424
-2.5438 one chocolate -0.1267
-1.7450 one coffee 0.1800
-1.0707 one cream -0.3222
-2.5438 one croissant 0.6638
-1.6600 one dollar 0.1163
-2.5438 one donut 0.0987
-2.5438 one double 0.0888
-2.0968 one doughnut 0.1303
-2.5438 one drink 0.2797
-2.0968 one fifty -0.1138
-1.4312 one hour 0.0987
-2.5438 one hundred 0.1007
-2.0968 one medium -0.0130
-1.2304 one milk -0.0132
-2.5438 one more -0.0988
-2.0968 one ninety -0.2824
-2.5438 one oat 0.1007
-1.7676 one of -0.5135
-2.5438 one ok 0.1178
-2.5438 one or -0.1472
-2.5438 one orange -0.0500
-2.5438 one sausage -0.0001
-1.1055 one second -0.0360
-1.6600 one seventy -0.2281
-2.5438 one seventy-five 0.1007
-2.0968 one small -0.1239
-2.5438 one strudel 0.1106
-0.8045 one sugar -0.0844
-1.4312 one sweetener -0.1461
-2.5438 one to -0.1402
-2.0968 one triple -0.2004
-2.5438 one two -0.1452
-2.5438 one was -0.0988
-0.3591 one's plain -0.1439
-0.3591 ones </s> 3.1975
-0.5142 onion chicken -0.0345
-0.9612 onion ok 0.1178
-0.9612 onion potato -0.1316
-0.2132 onions </s> 2.9745
-1.1426 only </s> 2.9745
-1.1426 only fifty -0.3311
-1.1426 only greek 0.3269
-1.5896 only have -0.1476
-1.5896 only if 0.4152
-1.1426 only one -0.0835
-0.8133 only sixty -0.3587
-1.5896 only sorry -0.1444
-1.1426 only the -0.3658
-1.9121 or a -0.1372
-2.3591 or any -0.0839
-2.3591 or apple -0.1093
-2.3591 or bagel 0.1460
-2.3591 or bagged 0.1007
-2.3591 or cheese 0.2363
-2.3591 or combo -0.0452
-2.3591 or crispy 0.4249
-2.3591 or croissant 0.6638
-1.5604 or did 0.2052
-2.3591 or dining 1.3133
-2.3591 or drink 0.2797
-2.3591 or english 0.3568
-2.3591 or fifteen -0.0856
-2.3591 or fifty 0.1092
-2.3591 or first -0.0806
-2.3591 or glazed 0.0340
-2.3591 or green -0.0806
-2.3591 or here 0.0233
-1.9121 or just -0.0121
-1.5829 or large -0.5239
-2.3591 or medium -0.0854
-1.0969 or muffin 0.1940
-1.9121 or not -0.2901
-2.3591 or one -0.0850
-2.3591 or plain -0.1079
-2.3591 or potato 1.0412
-1.9121 or raisin -0.1056
-2.3591 or regular -0.1202
-2.3591 or seven -0.0808
-2.3591 or small -0.1170
-2.3591 or special 0.1007
-1.9121 or spicy 0.1175
-2.3591 or strawberry 0.0992
-0.8239 or take -1.0000
-1.0000 or taking -0.2637
-2.3591 or talking 0.1007
-1.2393 or the -0.1936
-1.2465 or to -0.9752
-2.3591 or toasted 0.0907
-2.3591 or two -0.1307
-1.9121 or white 0.0155
-1.9121 or whole 0.6279
-1.5829 or you -0.1601
-0.6903 orange juice -0.0806
-1.1373 orange or -0.1472
-0.3385 orange pineapple 0.0661
-0.3010 order </s> 1.8994
-1.3311 order for -0.2048
-2.1073 order here 0.0233
-1.6603 order is -0.1356
-1.6603 order ma'am 0.6975
-2.1073 order on -0.0699
-1.6603 order out 0.2926
-0.7482 order please 0.4914
-2.1073 order ready -0.0924
-1.2235 order sir 0.1384
-0.6601 orders on -0.0699
-0.6601 orders right -0.1368
-0.3591 original one -0.0850
-0.8362 other drinks 0.1175
-0.3892 other side 0.8332
-1.1373 our feature 0.1007
-0.6903 our new -0.0083
-1.1373 our soups 0.1007
-0.6903 our summer 0.1007
-0.3711 out </s> 2.0455
-2.0312 out check -0.0458
-2.0312 out dear 1.0270
-2.0312 out do 0.6079
-2.0312 out everything -0.1435
-2.0312 out for -0.0779
-1.2324 out of -0.1067
-2.0312 out ok 0.1178
-2.0312 out or -0.1472
-1.2550 out sir 0.0682
-0.6721 out to -0.2816
-1.2324 out today -0.1813
-0.9612 outside or -0.1472
-0.1624 outside would 0.1730
-0.6601 oven </s> 3.1975
-0.6601 oven fresh -0.0856
-1.2545 over </s> 2.9745
-1.7015 over a -0.1205
-1.7015 over and -0.1482
-0.9028 over here -0.7686
-1.7015 over ok 0.1178
-0.2285 over there 0.0189
-1.7015 over to -0.1476
-0.2132 owe you -0.1484
-0.3591 owners </s> 3.1975
-0.6601 pairing </s> 3.1975
-0.6601 pairing with -0.1454
-0.3610 panini </s> 2.9332
-0.6903 panini with -0.3684
-0.3591 pardon me -0.0412
-0.3591 parfait </s> 3.1975
-0.3591 pastry yeah -0.0052
-0.2593 pay </s> 2.4056
-1.0581 pay ma'am 0.6291
-1.0581 pay sir 0.3325
-0.3591 paying dear 1.0270
-0.3591 peanut butter -0.1384
-0.9612 pecan </s> 3.1975
-0.5142 pecan danishes 0.1007
-0.9612 pecan two -0.1452
-0.6601 peppermint tea -0.0808
-0.6601 peppermint two -0.1162
-0.3784 pepsi </s> 2.8930
-1.2622 pepsi pepsi -0.1247
-1.2622 pepsi seven_up -0.0419
-1.2622 pepsi sir 0.3325
-0.4054 perfect </s> 2.4056
-0.7572 perfect pairing 0.1007
-1.2042 perfect so -0.1259
-1.2042 perfect what -0.1181
-0.2132 phone number -0.1286
-0.3591 pick twelve 0.0340
-0.3591 pie fritter -0.0988
-0.3892 pineapple </s> 2.9745
-0.8362 pineapple chill 0.1007
-0.3591 places here -0.1458
-1.0435 plain </s> 2.8930
-0.4221 plain bagel -0.0829
-1.4803 plain bagels -0.2886
-1.4803 plain croissant 0.4408
-1.9273 plain donut -0.1407
-1.4803 plain donuts -0.0944
-1.4803 plain doughnut -0.1089
-1.9273 plain everything -0.0699
-1.9273 plain no -0.1462
-1.9273 plain one -0.1478
-1.9273 plain or -0.1472
-1.9273 plain plain -0.1079
-1.9273 plain the -0.1480
-1.4803 plain toasted -0.0840
-1.9273 plain with -0.1478
-0.0142 please </s> 1.5684
-2.1515 please let 0.9116
-2.1515 please wait -0.0988
-0.4769 pleasure </s> 2.3326
-0.7908 pleasure bye 0.1113
-1.5896 pleasure bye-bye 0.1007
-1.5896 pleasure dear 1.0270
-1.5896 pleasure enjoy -0.0848
-1.5896 pleasure goodbye 0.1007
-1.5896 pleasure have 0.0458
-1.5896 pleasure sir 0.3325
-1.5896 pleasure thank 1.7142
-1.4035 potato leek 0.1007
-0.0290 potato wedges 0.1619
-0.0174 prepare your -0.1859
-0.3591 priced </s> 3.1975
-0.2593 problem </s> 2.4056
-1.0581 problem no -0.1268
-1.0581 problem ok 0.1178
-0.3892 proceed </s> 2.9745
-0.8362 proceed henry 0.2622
-0.2132 promise coupon 0.0392
-0.3591 promotion is -0.1370
-0.3591 prompted </s> 3.1975
-0.1849 pumpkin spice 0.1007
-0.2132 punch in -0.0831
-1.1373 put a -0.1432
-0.3610 put just -0.3975
-1.1373 put the -0.1480
-1.1373 raisin bran 0.1007
-1.1373 raisin burnt 0.1007
-1.1373 raisin muffin 0.3133
-0.3385 raisin tea 0.0619
-0.3591 ran out -0.1229
-1.0581 ranch </s> 3.1975
-0.2593 ranch chipotle 0.0837
-1.0581 ranch spicy -0.0360
-0.2393 ready </s> 2.1748
-0.9121 ready for -0.3009
-0.9121 ready over 0.3976
-0.3591 realize one -0.1327
-0.9612 really </s> 3.1975
-0.9612 really good -0.0497
-0.9612 really orders -0.0419
-0.9612 really sorry 0.0013
-0.3591 receipt </s> 3.1975
-0.3591 red velvet 0.1007
-0.5180 regular </s> 2.1748
-1.6379 regular chili -0.1023
-1.6379 regular chocolate -0.1454
-1.6379 regular coffee 0.0930
-1.6379 regular crispy 0.4249
-1.6379 regular medium -0.0854
-1.1909 regular or -0.3606
-1.1909 regular sir 0.1095
-1.6379 regular size -0.0198
-1.1909 regular tea -0.0467
-1.6379 regular ten -0.0883
-0.3591 remembers your -0.0853
-0.3591 rest we'll 0.0863
-0.3591 restricted </s> 3.1975
-0.1963 right </s> 1.8994
-2.0026 right ahead 0.0615
-2.0026 right down -0.0806
-2.0026 right here 0.0233
-1.5556 right in -0.2784
-2.0026 right my -0.1353
-1.1188 right now 0.0673
-1.5556 right ok 0.2072
-2.0026 right perfect -0.1211
-2.0026 right selene 0.2622
-2.0026 right there 0.0850
-0.3385 roast coffee -0.9300
-1.1373 roast double 0.0888
-1.1373 roast first -0.0806
-1.1373 roast two -0.1452
-0.3591 roasted garlic -0.0419
-0.3591 roll and -0.1482
-0.3591 room with -0.1408
-1.0581 said double -0.1426
-1.0581 said eleven -0.1211
-1.0581 said right 0.2902
-1.0581 said she -0.0988
-1.0581 said you -0.1488
-0.2553 salad </s> 2.3465
-1.6144 salad greek 0.5499
-1.6144 salad on -0.1264
-1.1674 salad sandwich -0.3472
-1.6144 salad what -0.1111
-0.8156 salad with -0.2050
-1.1373 same and -0.1482
-1.1373 same as -0.0988
-1.1373 same bag 0.2611
-1.1373 same it's -0.1456
-1.1373 same way -0.0419
-1.1373 same with -0.0741
-0.3424 sandwich </s> 2.3465
-1.7015 sandwich also -0.0806
-1.7015 sandwich and -0.1482
-1.7015 sandwich combo 0.1251
-1.7015 sandwich egg 0.1334
-1.2545 sandwich on -0.1712
-1.7015 sandwich was -0.0988
-0.9028 sandwich will -0.7718
-1.2545 sandwich you -0.0935
-0.3591 sandwiches </s> 3.1975
-0.3591 sat with -0.1478
-1.0582 sauce </s> 2.9745
-0.7290 sauce for -0.4798
-1.5052 sauce like -0.1388
-1.5052 sauce on -0.0699
-1.5052 sauce to -0.1377
-1.5052 sauce will -0.1429
-1.0582 sauce with -0.0926
-1.0582 sauce would 0.7419
-0.5371 sausage </s> 2.9332
-1.3134 sausage bacon -0.1247
-1.3134 sausage biscuit -0.0856
-1.3134 sausage egg 0.1334
-1.3134 sausage on -0.1456
-1.3134 sausage only -0.1166
-0.8362 say something -0.1093
-0.8362 say sorry 0.0013
-0.8362 say your -0.0853
-0.3591 school </s> 3.1975
-1.4731 seat </s> 3.1975
-0.5893 seat and -0.3263
-1.0261 seat at -0.1162
-1.4731 seat i -0.1025
-1.4731 seat i'll -0.0716
-0.6743 seat we'll -0.7056
-0.4769 second </s> 2.3326
-0.7908 second give -0.6857
-1.5896 second is -0.1370
-0.8133 second ok -0.1464
-1.1426 second please 1.1193
-0.2132 secretly listening 0.0392
-0.7645 see </s> 2.4056
-1.1162 see him 0.0841
-1.5632 see how -0.1436
-1.5632 see i -0.1422
-1.1162 see that -0.3647
-1.5632 see us -0.0271
-1.5632 see ya 0.1007
-0.6795 see you -0.1501
-0.6601 seed bagel -0.1465
-0.6601 seed bagels -0.1211
-0.3591 seen you -0.0759
-0.3591 select any -0.1411
-0.2132 selene </s> 2.9745
-0.2132 separate bag 0.3446
-0.3892 serve you -0.2989
-0.8362 serve your -0.0764
-0.6601 served </s> 3.1975
-0.6601 served on -0.1213
-0.8362 sesame bagel 0.1460
-0.3892 sesame seed 0.1007
-0.8371 seven </s> 2.8930
-1.2738 seven and -0.1293
-1.2738 seven dollar -0.2824
-0.4075 seven dollars 0.0528
-1.7208 seven fifteen -0.0001
-1.7208 seven forty -0.0240
-1.7208 seven ninety -0.0594
-1.7208 seven ten -0.0883
-1.7208 seven what -0.1356
-0.6601 seven_up orange -0.1162
-0.6601 seven_up sir 0.3325
-0.3610 seventeen </s> 2.9332
-1.1373 seventeen ninety -0.0594
-1.1373 seventeen sir 0.3325
-1.5052 seventy </s> 3.1975
-1.5052 seventy cents -0.1118
-1.5052 seventy eight -0.0594
-0.3926 seventy five 0.4467
-1.5052 seventy seventy -0.0540
-0.7065 seventy six 0.1566
-0.3591 seventy-five </s> 3.1975
-0.3591 sharp cheese 0.2363
-0.9612 she </s> 3.1975
-0.9612 she is -0.1472
-0.9612 she said -0.1093
-0.9612 she was -0.0988
-0.9612 she's at 0.4530
-0.9612 she's crying 0.1007
-0.9612 she's doing -0.1093
-0.9612 she's gonna -0.1093
-0.3591 short staffed 0.1007
-0.5142 shortcake </s> 2.9745
-0.5142 shortcake muffin 0.0903
-0.0375 shot in -0.9227
-0.1624 should be -0.0864
-0.9612 should i -0.1479
-0.2132 show you -0.3700
-0.0621 side </s> 2.2326
-1.5352 side please 1.3423
-1.5352 side yeah -0.0052
-0.2132 sides </s> 2.9745
-0.3591 since we -0.1452
-0.1739 sir </s> 1.2260
-1.2531 sir can -0.7942
-2.6536 sir excuse 0.8923
-2.6536 sir five -0.1465
-2.6536 sir for -0.1029
-2.2066 sir good -0.2968
-1.1805 sir have -0.9191
-2.6536 sir here's 0.0787
-0.9143 sir how -0.9852
-2.6536 sir i -0.1139
-2.6536 sir sorry 0.0013
-2.6536 sir sugar 0.5419
-2.6536 sir sure 0.3207
-2.6536 sir thank 1.7142
-2.2066 sir we -0.1443
-2.6536 sir yeah -0.0052
-2.6536 sir you -0.1470
-2.2066 sir your -0.0052
-0.6601 sit over -0.1404
-0.6601 sit take -0.0794
-0.3591 sitting down -0.0806
-0.5180 six </s> 2.1748
-1.1909 six cents 0.0580
-1.6379 six crispy 0.4249
-0.8616 six dollars -0.0006
-1.6379 six eighty -0.0424
-1.6379 six ninety -0.0540
-1.1909 six of -0.3582
-1.6379 six seventy -0.1353
-1.6379 six sir 0.3325
-0.3591 sixteen dollars -0.1258
-0.4634 sixty cents -0.9235
-1.2622 sixty extra 0.0863
-0.4634 sixty five 0.0721
-1.2622 sixty please 1.3423
-0.5893 size </s> 2.8930
-1.4731 size do 0.6079
-1.4731 size latte 0.2902
-1.4731 size or -0.1472
-1.0261 size sir 0.1095
-0.6743 size would 0.1730
-0.1624 slide </s> 2.4056
-0.9612 slide please 1.3423
-1.1478 small </s> 2.1748
-2.2676 small bagel 0.1460
-1.3838 small black 0.0433
-2.2676 small cap 0.0096
-2.2676 small cappuccino 0.0279
-2.2676 small chicken -0.0399
-1.4688 small chocolate 0.0080
-0.8293 small coffee 0.2056
-1.4914 small cream 0.0707
-2.2676 small creamy -0.0988
-2.2676 small croissant 0.6638
-1.4914 small cup -0.2644
-2.2676 small dark 1.2561
-1.8206 small decaf 0.5442
-1.8206 small double -0.1343
-1.4914 small french -0.0403
-2.2676 small from -0.0419
-1.4688 small hot -0.1350
-1.4688 small iced 0.2387
-2.2676 small latte 0.2902
-1.8206 small medium -0.0821
-1.8206 small one -0.0399
-2.2676 small or -0.1233
-1.8206 small regular -0.1286
-2.2676 small small -0.0794
-2.2676 small steeped 0.8052
-1.1550 small tea 0.1529
-1.4688 small two -0.1680
-2.2676 small way -0.0419
-1.4914 small with -0.3887
-0.2132 smith </s> 2.9745
-2.0834 so </s> 3.1975
-1.6364 so a -0.1075
-2.0834 so can 0.0981
-2.0834 so combo -0.0452
-2.0834 so far 0.1007
-1.6364 so four -0.1063
-1.6364 so how -0.2840
-2.0834 so how's 0.0787
-2.0834 so i -0.1459
-2.0834 so i'll -0.1370
-2.0834 so i'm -0.1202
-1.2846 so it -0.2681
-1.6364 so it's -0.1243
-1.6364 so just -0.0072
-2.0834 so medium -0.0854
-2.0834 so much 0.3568
-1.2846 so one -0.1431
-2.0834 so only -0.1378
-1.3071 so sorry 0.0570
-1.3071 so that -0.1204
-1.6364 so that's -0.1243
-2.0834 so they're -0.1162
-2.0834 so two -0.1477
-2.0834 so we 0.0360
-1.2846 so what -0.2113
-1.6364 so which -0.0850
-2.0834 so with -0.1454
-2.0834 so works 0.8509
-1.6364 so yeah 0.0125
-1.3071 so you -0.1747
-1.0581 some milk -0.1459
-1.0581 some staff 0.1007
-0.6111 some strudels -0.2134
-1.0581 some water 0.2981
-0.9612 someone here 0.0233
-0.5142 someone on -0.3443
-0.9612 someone over -0.0910
-1.0581 something </s> 3.1975
-1.0581 something for -0.1275
-1.0581 something small -0.1467
-0.6111 something to -0.1252
-0.3591 somewhat more -0.0988
-0.5336 sorry </s> 2.2674
-1.1957 sorry about -0.0922
-1.9719 sorry bagel 0.1460
-1.9719 sorry but -0.1297
-1.9719 sorry down -0.0806
-1.1957 sorry for -0.4037
-1.9719 sorry give 0.1062
-1.9719 sorry i'm -0.1390
-1.9719 sorry machine 0.1007
-1.9719 sorry please -0.1460
-1.1731 sorry sir 0.2054
-1.9719 sorry sorry 0.0013
-1.9719 sorry there's 0.2622
-1.9719 sorry to -0.1476
-1.1957 sorry we -0.1855
-1.9719 sorry which -0.1058
-1.9719 sorry would 0.9649
-1.5249 sorry you -0.0926
-0.1139 soup </s> 2.3465
-1.4731 soup chicken -0.0399
-1.4731 soup like -0.1475
-1.4731 soup or -0.1233
-0.3591 soups </s> 3.1975
-0.3591 special tea 0.1763
-0.9612 spice donut -0.1253
-0.9612 spice doughnut -0.1404
-0.9612 spice doughnuts -0.1093
-0.9612 spice or -0.1472
-0.6395 spicy </s> 2.4056
-0.9913 spicy crispy 0.2019
-0.6395 spicy mayo 0.1246
-1.4383 spicy meal 0.1720
-1.4383 spicy or -0.1376
-0.9913 spicy ranch 0.2921
-0.1743 splenda </s> 2.8930
-0.3591 spying </s> 3.1975
-0.3591 staff here 0.0233
-0.3591 staffed </s> 3.1975
-0.3591 start </s> 3.1975
-0.3591 started for -0.0779
-0.6601 states </s> 3.1975
-0.6601 states dollar -0.0304
-0.0512 steeped tea 0.3569
-0.3591 still see -0.1370
-1.1373 strawberry muffin -0.1425
-0.3610 strawberry shortcake 0.0392
-1.1373 strawberry strudel 0.1106
-0.3385 strips </s> 2.4056
-1.1373 strips on -0.0699
-0.6903 strips or -0.1213
-0.3468 strudel </s> 2.3923
-0.7764 strudel for -0.4154
-0.7764 strudel of -0.3107
-1.6601 strudel on 0.0518
-0.9612 strudels </s> 3.1975
-0.9612 strudels for -0.1110
-0.5142 strudels to -0.3526
-0.3591 struggle i -0.1459
-0.3591 sub_bun doesn't 0.0678
-0.8362 substitute it 0.0331
-0.8362 substitute that -0.1333
-0.8362 substitute with -0.0741
-0.0989 sugar </s> 1.7131
-1.2927 sugar and -0.1101
-2.0915 sugar awesome 0.2240
-2.0915 sugar for -0.1475
-2.0915 sugar no -0.1318
-2.0915 sugar ok 0.1178
-1.3153 sugar one -0.1678
-0.0414 sugars </s> 2.3465
-1.4005 sugars and -0.1466
-0.3591 suggest you -0.1488
-0.6601 summer beverages 0.1007
-0.6601 summer drinks 0.1175
-0.3591 super delight 0.1007
-0.1798 sure </s> 1.7555
-2.1300 sure awesome 0.2240
-2.1300 sure coffee 0.0930
-2.1300 sure henry 0.2622
-2.1300 sure instead 0.2622
-2.1300 sure just -0.0919
-2.1300 sure let 0.9116
-2.1300 sure no -0.1268
-1.2462 sure ok -0.0311
-2.1300 sure so -0.1271
-1.6830 sure sure 0.0977
-2.1300 sure thank 1.7142
-2.1300 sure that's -0.1073
-2.1300 sure we -0.1381
-1.6830 sure yeah -0.2282
-0.1249 sweetener </s> 2.2674
-0.7645 sweetener ok -0.6741
-1.5632 sweetener sweetener 0.4530
-0.2132 swipe </s> 2.9745
-0.0375 swiss </s> 2.4056
-0.3591 switch it 0.0331
-0.3591 syrup </s> 3.1975
-0.3591 t_bacon club -0.0419
-0.2879 table </s> 2.3326
-0.9535 table and -0.3696
-1.4005 table number -0.1390
-1.4005 table we'll -0.1247
-0.3591 tables </s> 3.1975
-0.8293 take a -0.6067
-2.0915 take any -0.1411
-0.7782 take care 0.1194
-1.3153 take it -0.0589
-0.4771 take out -0.2963
-2.0915 take parfait 0.1007
-2.0915 take the -0.1480
-0.9717 take this -0.1809
-2.0915 take those -0.1211
-2.0915 take twelve 0.0340
-1.3153 take your -0.1105
-1.4383 taking orders -0.0419
-0.0792 taking out -0.7033
-1.4383 taking to -0.1104
-0.0375 talk to -0.9316
-0.3591 talking out 0.0917
-0.2780 tea </s> 1.8842
-1.6525 tea bag 0.0381
-1.6525 tea biscuit -0.2232
-2.0995 tea black 0.2584
-2.0995 tea here -0.1458
-2.0995 tea lemon -0.0419
-1.3232 tea or -0.1317
-2.0995 tea regular -0.1202
-1.3007 tea sir 0.2001
-2.0995 tea today -0.1449
-2.0995 tea two -0.1058
-0.8373 tea with -0.2251
-2.0995 tea yeah -0.0052
-0.3591 team </s> 3.1975
-0.6601 tell me -0.0412
-0.6601 tell you -0.1488
-0.8839 ten </s> 2.9332
-0.7764 ten cents 0.0914
-1.6601 ten dollars 0.0039
-1.6601 ten honey_dipped 0.1007
-0.8839 ten timbits 0.1635
-0.7764 ten twenty -0.3125
-0.3591 testing me -0.1453
-0.0060 thank you -0.5982
-0.6111 thanks </s> 2.9745
-1.0581 thanks for -0.1149
-1.0581 thanks harrison 0.2622
-1.0581 thanks yusef 0.1007
-0.3193 that </s> 1.8025
-2.2224 that a -0.0850
-2.2224 that all -0.0539
-2.2224 that at 0.4530
-2.2224 that combo -0.1229
-2.2224 that decaf 0.3568
-2.2224 that everything -0.0699
-1.4462 that for -0.4828
-2.2224 that i -0.1111
-2.2224 that is -0.1472
-2.2224 that it 0.0331
-1.7754 that let 0.6886
-2.2224 that means 0.1007
-2.2224 that often 0.1007
-1.7754 that one -0.0835
-2.2224 that or -0.1472
-2.2224 that should 0.3568
-1.1026 that side -0.2967
-2.2224 that the -0.1295
-2.2224 that toasted 0.0907
-1.7754 that we -0.1870
-2.2224 that what -0.1443
-1.3387 that would -0.4320
-2.2224 that your -0.0764
-0.3591 that'll be -0.1420
-1.3892 that's a -0.0785
-1.3892 that's all 0.0384
-0.7236 that's everything -0.1438
-1.3892 that's fine -0.1951
-1.8362 that's good -0.0497
-1.8362 that's i -0.1111
-0.9525 that's it -0.2604
-1.8362 that's mango 0.1007
-1.8362 that's not -0.1370
-1.3892 that's number -0.0050
-1.0375 that's ok -0.0113
-1.8362 that's three 0.0618
-1.8362 that's what -0.1443
-1.8362 that's why -0.0988
-2.1698 the </s> 2.9745
-2.6168 the amount 0.1007
-2.6168 the apple -0.1093
-2.6168 the b_l_t -0.1247
-2.6168 the back 0.1981
-2.6168 the bacon -0.0769
-1.8180 the bagel 0.0159
-2.6168 the bagels -0.0656
-2.6168 the biscuit -0.0001
-2.1698 the black 0.2800
-2.6168 the bottle -0.1274
-2.6168 the box 0.0529
-2.6168 the broccoli 0.1007
-2.1698 the bun -0.0711
-2.6168 the butter -0.1384
-2.6168 the card 0.1655
-1.8180 the change 0.0437
-2.6168 the cheese 0.2363
-1.7330 the chicken 0.0472
-2.6168 the chili -0.1330
-1.8180 the chipotle 0.2454
-2.6168 the chocolate -0.1454
-2.6168 the classic -0.0419
-1.3546 the coffee 0.0565
-1.5042 the combo 0.2601
-2.1698 the cream 0.0839
-2.6168 the creamy 0.0096
-2.1698 the crispy 0.5836
-2.6168 the croissant 0.6638
-2.6168 the croissants -0.0988
-2.6168 the dipping 0.9649
-1.8406 the doughnuts -0.0922
-2.6168 the dozen 0.3568
-2.6168 the dream 0.3109
-2.6168 the drink 0.2797
-2.6168 the egg 0.1334
-2.1698 the end 0.5442
-2.6168 the first -0.0806
-2.1698 the food 0.2300
-2.6168 the four -0.0326
-2.6168 the french -0.0093
-2.1698 the front 0.0392
-2.6168 the guest 0.2622
-2.6168 the half -0.0924
-2.6168 the hash 0.0096
-2.1698 the hashbrown 0.1150
-2.6168 the honey -0.0304
-1.4970 the house 0.0440
-2.6168 the iced 0.0571
-2.6168 the just -0.1465
-2.1698 the large -0.0315
-2.1698 the lunch 0.1007
-2.6168 the mayo 0.1720
-2.6168 the medium -0.0854
-2.1698 the milk 0.2643
-2.6168 the mix 0.1007
-1.7330 the moment 0.4603
-2.1698 the money 0.0392
-2.6168 the most 0.1007
-1.8180 the name 0.3877
-2.6168 the new -0.0500
-2.1698 the number -0.1093
-2.1698 the orange 0.3229
-1.1437 the order 0.2787
-2.1698 the oven 0.1007
-2.6168 the owners 0.1007
-2.6168 the pepsi 0.0863
-1.8406 the potato 0.7770
-2.6168 the promotion 0.1007
-2.1698 the pumpkin 0.0879
-2.6168 the raisin 0.1175
-2.6168 the regular 0.0079
-2.6168 the rest 0.1007
-2.6168 the roasted 0.1007
-2.6168 the room 0.1007
-1.8180 the same -0.0419
-2.1698 the sandwich 0.1609
-2.6168 the second -0.1378
-1.8180 the side -0.0659
-2.1698 the small -0.1401
-2.1698 the soup 0.5562
-1.8406 the strudel -0.1624
-2.6168 the super 0.1007
-2.1698 the swiss 0.7106
